{
  "layer_sizes": [
    784,
    128,
    64,
    10
  ],
  "weights": {
    "W1": [
      [
        -4.978062988239202e-12,
        -5.776364646658305e-27,
        1.0261216540090502e-05,
        -1.2985917489039576e-12,
        -8.532902392758384e-09,
        -1.2955663992167275e-06,
        -3.4869041699751715e-08,
        1.0849586978285423e-19,
        -5.493988227170247e-11,
        6.642291612225129e-11,
        -1.5991278005593584e-08,
        -2.6595654477159834e-05,
        5.669574900623086e-06,
        0.000133915298103678,
        3.291384236123477e-15,
        2.7939528872861452e-06,
        1.1396553689321093e-10,
        1.462377251211859e-13,
        -1.986182827226715e-15,
        -2.5243479216396663e-12,
        4.901407195835083e-12,
        -3.1301233399371225e-08,
        -1.9515109229073339e-10,
        -2.8612112091647593e-13,
        9.706854627663246e-16,
        3.8638190366486027e-07,
        -3.846132703734832e-17,
        -1.2091140375747432e-23,
        1.9870344680680235e-29,
        2.0049257750543084e-27,
        1.339733590559594e-08,
        -2.5973798250168568e-14,
        -2.1868551101929507e-12,
        1.7042208309615658e-05,
        1.319009924150696e-15,
        -2.5509146517403373e-07,
        -2.577557376430606e-07,
        5.186120802483169e-23,
        2.7375101060697024e-06,
        2.100916754403735e-17,
        3.8145195856059045e-10,
        6.6707620640991695e-09,
        -7.678852872900117e-09,
        -2.9278808376854777e-07,
        2.456893595061259e-07,
        -3.2950474221327924e-12,
        3.126547555795146e-13,
        -9.963509621061225e-11,
        -2.6255873927604382e-11,
        -9.158589806033498e-07,
        -8.041058870771788e-11,
        -3.8994250129637386e-13,
        6.745667506293346e-10,
        -1.708867453180157e-16,
        -1.6307021076779101e-06,
        1.3498050710234647e-13,
        -1.116648365565016e-08,
        1.1179427867914241e-05,
        1.176079212817561e-12,
        -2.0597973813163293e-16,
        -2.580671124588368e-23,
        1.460350365325198e-10,
        1.3467043361544831e-11,
        2.4315301570567073e-22,
        7.779606597835101e-30,
        1.4880790832898755e-07,
        2.7520806892456187e-11,
        2.9303911748504777e-12,
        5.05278378596251e-13,
        -4.372923103980782e-11,
        -2.305388190979404e-15,
        4.6423743469937096e-23,
        -2.130141600449125e-10,
        -2.971469837881612e-19,
        -3.1089260668525874e-08,
        -3.393240417500881e-27,
        2.5795485240657144e-06,
        7.099672782777669e-15,
        2.1711033800166218e-10,
        -3.687419188747386e-12,
        -6.52622093474552e-16,
        -2.488922267695906e-13,
        -2.907262413771335e-12,
        -1.7089879679905112e-13,
        2.3030055583050388e-15,
        2.8759064736710537e-16,
        -1.5353533567731183e-15,
        -1.0600034683937186e-17,
        7.369989422529271e-15,
        -7.565805575723795e-17,
        -1.4162587825630961e-15,
        -2.7722102390608915e-14,
        6.718424461759936e-13,
        -5.0029898296043864e-06,
        -2.785136129708959e-10,
        4.582270383915183e-12,
        2.8684098966594226e-07,
        3.93649545129122e-13,
        1.9478752237962174e-18,
        -2.641943303839363e-05,
        -1.8839347560038366e-13,
        3.8992438349927654e-11,
        -1.9916832825292115e-14,
        5.876698522516069e-11,
        1.0330312314444497e-14,
        -1.3973085372633126e-10,
        -9.38155173661701e-17,
        -1.0225373384485511e-15,
        -5.258607197348284e-05,
        -6.824425125797528e-10,
        -1.4153757412261515e-05,
        -2.107677681970532e-15,
        -1.3773087058182402e-26,
        1.4796029084795734e-11,
        -1.8907669391815232e-06,
        7.600321800540799e-07,
        6.82392105864815e-33,
        -5.49726826181913e-17,
        -7.705153397873397e-16,
        2.3749837132262004e-23,
        2.0158167428805553e-10,
        -8.240947710477748e-07,
        -1.1736624764511153e-09,
        7.558927883462079e-09,
        7.154246547303536e-16,
        -1.6757564497825966e-06,
        1.472868735352688e-14,
        -1.380193988954101e-13
      ],
      [
        1.2655998308347957e-21,
        1.7211796489005529e-15,
        3.374925127168286e-16,
        -1.1935953848763627e-17,
        3.3708435900762476e-05,
        2.8130534473665065e-09,
        -1.5066614365715175e-06,
        0.00012241118510543766,
        -4.9108787269999935e-06,
        -5.2343407151012675e-06,
        6.2186899072723536e-18,
        -6.262022246418184e-12,
        -5.593810174022669e-11,
        2.0089100484361696e-12,
        1.2414593417272792e-09,
        3.5640023686854155e-07,
        -1.1980132874328494e-10,
        -1.2947005970031298e-08,
        1.1537006958487402e-13,
        -2.124842240496357e-12,
        4.396832274550639e-09,
        1.4288360506816454e-13,
        7.318870511992881e-16,
        1.7868678043236215e-09,
        -2.3723397300662563e-09,
        1.6910912834242358e-30,
        0.00022148849268886967,
        -4.9263672638856305e-09,
        -4.07244739532519e-14,
        -3.0243248884447084e-13,
        7.349632601607849e-12,
        1.2970903818561526e-11,
        4.480581562029923e-06,
        3.0115037256961267e-10,
        -2.1776801722713086e-14,
        -6.222211154571807e-12,
        -1.0577976757500044e-14,
        -1.499628426733705e-11,
        1.5911430551982358e-14,
        2.041934774054313e-17,
        -6.818325424100462e-10,
        -3.3670256398526144e-14,
        4.1976521395205297e-35,
        5.160950879452901e-07,
        7.147617101865434e-10,
        2.0850492546480514e-20,
        2.7261045538312306e-06,
        9.651891819667933e-09,
        -1.3341354939039765e-23,
        -1.3338337462198317e-11,
        2.599302411622515e-08,
        6.213451842416433e-07,
        -8.656659155401909e-09,
        5.179881993408264e-07,
        -9.660054878485786e-16,
        -4.412000902308885e-07,
        -1.2176541313289695e-10,
        -7.323284700689576e-16,
        -5.628028028882403e-08,
        2.2014520045770735e-09,
        1.8598063408542184e-08,
        2.04701882344769e-10,
        -1.0906110506232713e-05,
        1.7453274496702976e-10,
        -2.1509081420872434e-11,
        -6.935974745698663e-09,
        8.413345438669217e-10,
        2.4303895299076115e-07,
        -3.968624222466985e-10,
        -1.0980035030138489e-10,
        9.376957043394523e-31,
        -5.204595383371086e-08,
        -4.390699009672694e-29,
        1.1914213725822136e-08,
        -9.290575545944945e-09,
        -9.154756973435266e-11,
        7.065890111530713e-11,
        -6.707128538273439e-07,
        5.932067636750436e-07,
        -1.3755736478688626e-10,
        1.0811721585144734e-10,
        1.312659661564623e-11,
        -9.86210178818184e-11,
        -1.2146441652466653e-10,
        1.5745119418990977e-10,
        1.501415764878757e-14,
        3.0577882525067133e-12,
        1.504352262279218e-11,
        4.1502263368090516e-16,
        -3.855356548483607e-34,
        7.306381342116929e-13,
        -6.834294253888931e-06,
        -1.774387469652943e-10,
        -2.526546172831732e-10,
        4.982603826069919e-09,
        -7.711958458003524e-18,
        -2.0708316200992848e-18,
        9.667470085045085e-08,
        7.183581723885451e-06,
        -3.787570756604951e-11,
        -5.63215069145869e-11,
        1.0262419748372069e-14,
        7.13097738417218e-07,
        -5.103630865049734e-13,
        -8.580258281664468e-18,
        -2.5112307901402016e-05,
        -0.00015872205330329274,
        -3.0566337391929055e-08,
        1.3065842607265175e-09,
        0.0001555544890404219,
        2.4274031184029557e-10,
        -8.122531913934877e-05,
        2.927637763467379e-07,
        4.548917792503857e-10,
        1.4880031788299265e-12,
        -3.825943914831446e-14,
        -2.2673291922203222e-11,
        4.4488207497163846e-20,
        -6.024236575929652e-11,
        -1.552702257931657e-08,
        7.21490481534933e-09,
        2.546772798209603e-17,
        5.677461717917294e-07,
        3.395707618211365e-05,
        -3.8241528970111085e-13,
        4.3678369988923396e-14,
        -6.492245659441833e-14,
        -5.869729414832838e-10
      ],
      [
        1.4114445972443246e-09,
        1.747597842236157e-11,
        -7.518575876948703e-07,
        -1.4507659036147275e-12,
        -2.798619459918083e-30,
        -7.620635208966699e-10,
        8.590527167242632e-12,
        6.097803995674139e-14,
        2.4639180833896614e-14,
        8.136547822200345e-11,
        -4.487361580402579e-07,
        1.491762275773536e-09,
        -7.0412991496855835e-12,
        1.4791330417884143e-19,
        1.3967891444190902e-07,
        -4.165822130333981e-16,
        6.066213083516238e-14,
        8.670737457686466e-14,
        8.803150559414272e-09,
        2.7149868262669192e-17,
        5.088999346054633e-07,
        9.067363337322975e-05,
        -1.3406123437747522e-12,
        -1.0243600883655146e-11,
        -1.4114337103833918e-15,
        2.753558220568056e-13,
        -6.997746497813218e-09,
        2.8038712774961007e-05,
        1.2595263593571269e-08,
        1.2646064661361054e-09,
        -1.7778060453378317e-08,
        7.451677490725887e-07,
        -1.8001778470591837e-17,
        -3.078868503586583e-33,
        5.7245806247965e-05,
        -7.711744529049518e-07,
        -4.770271011276675e-14,
        3.436115935296782e-07,
        1.1527263741426302e-11,
        3.778811679711451e-08,
        -4.726153898529167e-05,
        -6.130191246356555e-09,
        -1.0867507020580996e-05,
        6.385820862706038e-10,
        3.0101726384684994e-16,
        9.141562492595009e-07,
        8.086065056508356e-22,
        1.0326965983117145e-06,
        -2.2836552193717614e-05,
        -3.1902252942618645e-07,
        9.377176772547343e-10,
        -2.804491429215245e-05,
        1.3506580074761613e-09,
        -1.1105432497462375e-08,
        -1.7716193820894932e-11,
        -6.035188041633304e-13,
        -8.889443527401374e-17,
        -2.1052285807730774e-11,
        -2.961711847450659e-16,
        1.2940087187516419e-33,
        -3.881519107671105e-18,
        -8.417918153237983e-11,
        4.1313875779107716e-33,
        8.216083826262419e-08,
        8.800917569283943e-15,
        1.2132539855436646e-14,
        9.625473602618637e-06,
        4.893837009249471e-13,
        6.219022168548932e-12,
        1.3438722090192686e-05,
        3.46310025355624e-15,
        -2.2254790406307004e-10,
        5.270964918050887e-10,
        1.6888798010749302e-06,
        1.9464628713088413e-30,
        -5.032789458042498e-15,
        1.8883945680947347e-20,
        -0.00014423467318551393,
        -1.0081324022419931e-07,
        5.363714060099565e-09,
        -2.400330899444561e-05,
        -3.539532666242079e-14,
        -7.35373159243528e-07,
        2.122889541029072e-06,
        1.4371188552954465e-31,
        8.150374865714485e-07,
        9.326362997156344e-33,
        4.897605698774067e-05,
        -3.294558223373166e-15,
        7.878670515979737e-11,
        1.7857368033988523e-22,
        -1.0158355514640106e-10,
        3.2855349067346854e-10,
        -4.99376418446562e-10,
        -7.779004548441701e-05,
        -8.133436254826546e-09,
        5.852437304106285e-13,
        6.248743581248888e-07,
        -1.840661635887828e-29,
        -3.535458516974175e-09,
        1.8849074499278044e-15,
        9.098640045317257e-16,
        -2.952888767063597e-09,
        -1.9499365507245236e-33,
        -2.190121515062049e-06,
        -2.012729790628824e-10,
        1.3232961262136245e-08,
        -5.190680915011429e-05,
        2.2696162352381937e-30,
        -4.869971413858964e-18,
        -4.0796897207293594e-08,
        -2.37597851603851e-19,
        -5.52708217463437e-05,
        -4.0106269950023796e-13,
        6.765405292127185e-17,
        1.0160800147624223e-07,
        -1.8699397206621053e-06,
        -2.135172738937105e-10,
        1.3280069072009432e-11,
        -1.9068910567578167e-06,
        2.6355692519176416e-10,
        1.1699303912029426e-22,
        7.76569217512159e-09,
        1.34482351456297e-16,
        -4.769094401966136e-13,
        1.4890291897438657e-10,
        2.76287619711486e-08,
        4.627357913305676e-28
      ],
      [
        -0.00013805425408887085,
        3.3861720694556507e-11,
        4.094152366686887e-12,
        5.19789856833088e-20,
        1.1503278650216243e-06,
        2.7538114311368127e-16,
        -6.087250197970553e-33,
        -4.5335314384471004e-13,
        -3.255918241125091e-10,
        5.033470029512695e-07,
        2.3205129095351128e-10,
        2.382855237416513e-23,
        -7.480995739073877e-14,
        -2.852566711544479e-14,
        1.52415854573417e-13,
        9.11369558639775e-08,
        3.4422417210189284e-15,
        -1.8418087065027943e-10,
        1.5951200109507895e-07,
        6.944571732793531e-13,
        -1.3403054763888527e-05,
        -2.1672502086867753e-10,
        -8.21021185638449e-30,
        -1.3019028013971132e-12,
        2.282862322029458e-07,
        2.8173117458180873e-14,
        -1.6257777223159782e-13,
        3.25684305973153e-11,
        1.5546834191674002e-07,
        5.965527277712344e-16,
        -1.7175029518634918e-14,
        -4.645694898779561e-08,
        -1.6228244349043323e-15,
        5.1876761110665474e-11,
        1.7114783770620573e-14,
        3.744169672510808e-15,
        -2.4133660520561753e-15,
        9.710392524944355e-06,
        -2.5150021681825253e-11,
        -1.133712379674954e-06,
        -1.6086150709132132e-17,
        7.469021906502784e-13,
        -2.670489479685267e-13,
        -9.031727617733811e-06,
        -2.0182281507054744e-09,
        0.0001387480796691511,
        -8.382026520052901e-05,
        -3.164267977080971e-08,
        -9.871411352156982e-14,
        8.447912322280238e-06,
        -2.405366869095075e-09,
        -8.221138352113828e-07,
        1.3471139573559941e-05,
        -3.1542633414752946e-12,
        -1.5946439704874425e-13,
        -1.0963196794799664e-05,
        -3.7134616516125315e-19,
        -6.293282324782038e-09,
        -5.424238973905036e-05,
        -4.519325353603379e-11,
        4.7317018374890984e-08,
        1.6652727254368758e-08,
        -3.94845408688308e-14,
        3.679092373922255e-15,
        -2.9511965181706907e-07,
        2.115561746962257e-09,
        -3.644020257804697e-31,
        -6.39953860737956e-06,
        -4.846072586381755e-08,
        -9.116427267414933e-09,
        -1.5798671580291763e-13,
        -1.3788033876723844e-07,
        3.532876387842574e-07,
        -9.78257436779215e-07,
        -1.5439596889879163e-07,
        -4.3696339801827867e-05,
        1.4910934203262003e-11,
        -1.1496677787603067e-15,
        5.256313179137685e-05,
        -5.379412085904424e-10,
        1.2181539625979588e-06,
        -9.31569206877125e-06,
        5.1338813059285966e-33,
        2.217842186711774e-08,
        6.469981471076152e-08,
        1.2126457514800787e-06,
        -1.1065465425895814e-13,
        1.5124890551102863e-15,
        8.454313796670733e-12,
        -2.3405196238189926e-08,
        -8.76039766063189e-13,
        3.8424721213474474e-07,
        -2.2667620547559443e-07,
        2.146881276438383e-18,
        1.093936509350038e-06,
        -2.0868749824229095e-05,
        -4.431817996403682e-05,
        -1.7235385593911423e-13,
        -1.0722722390375025e-07,
        -1.4290348812656245e-06,
        -5.4563818346050496e-05,
        6.905257423993248e-23,
        9.27324461887289e-12,
        4.88155851400868e-10,
        4.2781352735677265e-06,
        -3.679062884752019e-07,
        -2.829458112202768e-14,
        -3.253739689546623e-08,
        -4.0410166954226636e-29,
        -5.260821467439405e-08,
        -3.528297059533206e-27,
        -3.113637627504429e-05,
        -9.81639840587256e-07,
        2.4575114154530673e-14,
        2.0686875046388605e-05,
        -1.7734324476901899e-06,
        1.8496517241915086e-13,
        -1.1081616254411807e-07,
        -2.7605787973439883e-07,
        1.2734506675582498e-08,
        1.501090586122524e-15,
        6.685620080253919e-12,
        -4.5242118962106315e-06,
        -1.5531929716983565e-11,
        -2.487474266070864e-52,
        3.1635221319797725e-08,
        -7.559306199671646e-31,
        1.352531839523624e-07
      ],
      [
        -1.2132937897924347e-10,
        -8.258772706604785e-20,
        -6.532762732151311e-10,
        -2.7963342666431964e-08,
        2.46081724988864e-18,
        -3.5405232898890115e-30,
        -4.130717698217923e-15,
        4.745960610301656e-10,
        -5.391196775717077e-16,
        -6.539314476344113e-10,
        -2.1778283952596295e-07,
        -5.472039336148438e-12,
        2.0481513294539357e-12,
        -1.1169443726452688e-10,
        -2.0632445690246832e-07,
        1.342068359577288e-18,
        -3.474747019829127e-24,
        -1.1270749241839436e-10,
        -1.0667162875665323e-11,
        -3.6014984991593387e-06,
        4.665831665262202e-12,
        -2.5718285988602863e-10,
        -1.0972593186908583e-12,
        -6.673034605486137e-13,
        -2.8403587242797578e-05,
        7.704577115411694e-14,
        8.256452340531578e-15,
        1.8729545079767687e-08,
        1.1133380437805076e-17,
        -1.966654340608988e-09,
        1.075797133461571e-15,
        -1.1536517554578155e-17,
        -7.62995110476002e-14,
        3.990085486915474e-08,
        8.708081966241231e-08,
        4.999782113725905e-05,
        -6.453109091764681e-24,
        1.3397169245419482e-10,
        2.4806969017976554e-13,
        -9.229356903344935e-15,
        -7.547773653212721e-07,
        3.729237096480296e-30,
        -2.7201814385785e-16,
        8.698439363186699e-21,
        3.4125138543898346e-58,
        -2.324678514735351e-13,
        -4.710230321605261e-09,
        2.7093321851271557e-14,
        3.152541823248703e-08,
        -3.340326547000823e-09,
        1.3189936175271558e-13,
        4.704426091926071e-06,
        3.943544522078968e-12,
        -6.59806658256236e-13,
        -1.0111432219065018e-06,
        -1.2466620597069958e-05,
        6.174096769051882e-08,
        3.7695760786759206e-08,
        -1.0297158069913884e-13,
        1.539725707372834e-11,
        2.879812066007855e-12,
        -5.904296752126369e-07,
        5.262601758512947e-11,
        -2.2506422655384184e-12,
        -1.8835083640712152e-12,
        -7.814412159023232e-07,
        -4.257456860517035e-10,
        5.96847078948355e-08,
        -4.4913564303520464e-11,
        -2.8208716782958925e-15,
        2.817427101530783e-19,
        -4.410395598341244e-05,
        1.0559864491971636e-13,
        -4.789986483448922e-15,
        1.2917079918446855e-10,
        3.201673681624418e-11,
        3.683839878507628e-12,
        2.900126739060528e-05,
        -9.066266670135885e-06,
        -1.488207460005038e-07,
        1.1443232610084402e-10,
        -2.322741210612193e-12,
        1.325166534681909e-11,
        -1.1937222640982171e-13,
        -1.6260174114060097e-09,
        3.603426770241884e-12,
        2.2254300318124804e-12,
        -7.779269611612356e-15,
        2.1010393244110996e-12,
        -5.0702457112815945e-12,
        8.433489464628724e-10,
        5.533723704156204e-15,
        -6.08363747245847e-17,
        -1.7964199855544237e-12,
        -7.10812502134868e-15,
        -7.1306878762077735e-12,
        -1.5783542244733582e-12,
        -4.410155179912809e-13,
        -7.557209832066144e-08,
        -2.067777573266434e-11,
        7.582640170793975e-09,
        1.6849170158428163e-10,
        1.9968934995560683e-10,
        4.391878830552364e-09,
        -2.358878236337912e-10,
        -6.060427834910019e-15,
        6.176310089492876e-05,
        6.078679416088878e-11,
        3.233940464024583e-30,
        2.2686934589838413e-09,
        -2.0932764910929266e-06,
        2.855600684507623e-09,
        1.837242757791231e-14,
        2.812229868268318e-18,
        2.1509639435511565e-10,
        -4.0412927421050276e-12,
        3.028089567353892e-20,
        -6.586047864978652e-11,
        -8.022903399981353e-08,
        -6.07905827586466e-08,
        -8.833479426382044e-05,
        -4.94262996027369e-30,
        2.5426972925596753e-09,
        -7.411835162430621e-11,
        1.836339928145967e-11,
        -1.4575578941026997e-30,
        -4.883692827404742e-06,
        9.239113782101463e-09
      ],
      [
        -3.386168079927099e-07,
        8.361234550996372e-07,
        6.204992478040284e-05,
        -6.110003591105184e-14,
        -1.043240003799897e-05,
        -1.674610882398088e-09,
        3.5681077135338847e-09,
        3.174665163337552e-11,
        -1.1444081887478253e-09,
        6.425931902476087e-06,
        -5.694356021939663e-05,
        -1.3848148064592178e-13,
        2.616757989605619e-16,
        6.580092148015005e-12,
        -2.655028768289589e-11,
        -3.952129856217668e-18,
        -4.351746125615068e-14,
        5.670977659116068e-07,
        1.4116733409631093e-12,
        -3.374720022003063e-10,
        8.725067185595663e-08,
        -1.9067818476351136e-13,
        3.4286948755391234e-10,
        1.0784571835029692e-08,
        3.5631722167306206e-13,
        -4.255546866809601e-08,
        -1.70879224480905e-14,
        -1.4902276052522173e-07,
        -3.3388223978038537e-16,
        9.71930292939268e-06,
        2.189828612484244e-15,
        1.8658416971594295e-09,
        3.2334349717970764e-11,
        5.3359691694949146e-14,
        -2.8186926432244887e-07,
        -3.463381808781908e-27,
        -1.5414060643266773e-14,
        2.005206932152064e-14,
        -7.807675528766792e-20,
        2.408986015860856e-12,
        2.8700261348833965e-12,
        -8.507424752536325e-10,
        -2.9504028224714365e-12,
        -6.285764443749706e-07,
        -1.5495680853175108e-06,
        5.0137966254202376e-14,
        6.370233337597996e-22,
        3.6823405547711974e-21,
        -7.51818536076079e-10,
        -8.005679136810681e-07,
        1.548087968758283e-14,
        1.2544370836519466e-22,
        4.745565083420082e-05,
        -1.6530248790733252e-13,
        -6.2328202852109545e-09,
        -1.0995721784714773e-06,
        -3.6826602870187744e-06,
        -3.0643209131539145e-17,
        1.3875069189966034e-08,
        -3.3039459867137087e-06,
        1.7561222161767694e-09,
        -2.1216636638625577e-06,
        6.631952120909287e-55,
        -1.1205234592058039e-20,
        4.966543850431299e-07,
        -1.2695226045280096e-05,
        -1.2301181640638533e-16,
        1.477870053715881e-06,
        -1.2308027847383468e-12,
        1.2013e-319,
        -1.5415085666111796e-10,
        -9.604844394892341e-11,
        9.354008696557066e-06,
        1.5961045147619248e-11,
        3.9567140821251493e-10,
        -1.3020186026570226e-14,
        2.9694598667983225e-08,
        1.1251871988573277e-18,
        -5.511558058183038e-06,
        -4.16791214245745e-14,
        -7.719952711261934e-17,
        1.994621622630027e-13,
        3.7136125664029822e-06,
        2.4093851251155685e-07,
        4.408657095991544e-17,
        -2.945740238869e-07,
        1.001592810016222e-16,
        1.4111215094531099e-11,
        -2.762452525502327e-12,
        1.3645493700628661e-21,
        -1.5368869987982495e-15,
        -7.826738956340237e-13,
        7.0461342306891605e-06,
        4.57351700560347e-12,
        -4.10752782481062e-18,
        -7.29876358527434e-14,
        7.555505222469328e-05,
        3.749276007966625e-23,
        -9.639954842303698e-12,
        -7.228936109212988e-11,
        -0.0001434801426757893,
        -1.8519420793248087e-10,
        2.6208418474625898e-14,
        -5.597779818262273e-13,
        -5.100083635640347e-10,
        4.0001471758274845e-05,
        1.987656563232328e-06,
        -1.8356001544499531e-09,
        2.5409169898809904e-08,
        3.339095325668169e-06,
        -5.17822397765666e-16,
        -2.5005174247594206e-08,
        6.932294363870842e-10,
        -5.441298196773957e-06,
        1.8058493039962495e-20,
        1.8068090025313525e-26,
        -1.2977636847404208e-16,
        2.1772124300500157e-07,
        2.621641117133994e-29,
        4.5998770838145695e-10,
        -7.296859068714961e-07,
        -3.6226551978201594e-08,
        2.7062478589804643e-18,
        -3.7287661310642166e-17,
        -9.144221980098085e-06,
        6.590511617459813e-15,
        6.26202012429179e-13,
        9.062034786054932e-18
      ],
      [
        -1.9672622841192183e-11,
        0.00016099065139697538,
        -7.901027726006825e-08,
        3.3960420476454758e-25,
        -1.4642502034540824e-05,
        -8.987685026714302e-17,
        1.1549189593994514e-08,
        -3.961916292705396e-10,
        -3.659781977065226e-11,
        4.772884004493611e-07,
        -5.743430799649346e-12,
        -5.225383344562298e-18,
        5.735662946042903e-28,
        1.1687754623466504e-23,
        3.0686182309800823e-06,
        7.371167131133913e-16,
        3.154447874667211e-09,
        7.21136367184406e-23,
        5.990049601109325e-08,
        -3.4945887491302736e-16,
        -3.1214037303790503e-22,
        9.14024165883183e-07,
        1.4845729107260776e-18,
        1.1764315775919565e-32,
        -2.3536338513147604e-05,
        3.26940847867154e-25,
        -6.6231299442312855e-12,
        -6.136267153534911e-11,
        -7.335477665400874e-12,
        -8.338215543169671e-22,
        4.062227493604421e-13,
        4.793060972601559e-16,
        -5.888504389240413e-10,
        7.843308635170357e-12,
        -4.241499930438539e-19,
        -2.5531060195830752e-05,
        -1.1188421717963384e-08,
        5.247544369170163e-15,
        -4.5408797577527746e-14,
        -2.75396171297671e-10,
        -1.5332294787411207e-08,
        -1.2435149278243774e-06,
        -1.12553579782449e-21,
        -2.701672237424884e-19,
        3.733698346412417e-23,
        -2.448824685173565e-11,
        1.97568379621521e-07,
        -3.1471717987395654e-12,
        -2.065868862191113e-07,
        8.77699779619917e-11,
        4.3363018029506725e-09,
        1.5144993257313078e-30,
        -2.3946619497792195e-17,
        -3.5012790666553366e-34,
        2.5840471021965212e-15,
        -8.655481322298045e-15,
        5.622606638068995e-08,
        -2.48481566668678e-05,
        3.3285701389976283e-09,
        9.891210934498534e-11,
        -5.044253889705e-12,
        1.203512116488467e-12,
        1.6175633370257356e-13,
        -5.339743657209062e-14,
        1.3020975517684663e-08,
        5.584605513021762e-08,
        2.3183770399975854e-05,
        -3.918170215728844e-12,
        -1.6059588400373655e-05,
        -8.862975993392566e-10,
        -3.6733048301039903e-16,
        -1.0768311821659828e-08,
        3.565550766841896e-06,
        1.9283355101317972e-11,
        -1.0264748704622373e-06,
        -1.7355892758503767e-06,
        -7.162137262794305e-05,
        8.705779177241471e-08,
        5.3271453225456855e-09,
        -2.5042470143466337e-11,
        -8.184533708040086e-18,
        1.6654347171493109e-09,
        -1.7506673629108769e-12,
        3.2541722009834686e-08,
        -9.960306084908263e-07,
        -6.384763634954311e-08,
        1.8693108850312348e-16,
        5.826979361001658e-09,
        -9.514303385051425e-06,
        7.658804215152847e-11,
        -9.356808681517368e-12,
        -1.399527363457155e-13,
        -4.158307826600173e-06,
        -3.13787642009445e-19,
        4.1971279839540047e-16,
        -1.0854382636418145e-11,
        -2.3923999555408048e-15,
        -2.2462471415394825e-14,
        8.928371778395196e-06,
        -3.532132723639524e-08,
        1.797261281700031e-24,
        3.9044167296467474e-11,
        2.879830700475093e-06,
        1.8497243073595066e-11,
        4.352209968692216e-14,
        7.334819456328752e-08,
        -4.288490718354924e-08,
        -1.49296279242949e-11,
        -7.140536942096115e-08,
        -2.8538250348963726e-14,
        1.0051319953672074e-11,
        1.1024209974647223e-11,
        2.2661656628578205e-09,
        1.1646761284546589e-11,
        -1.3079996773422086e-10,
        -5.708062124207712e-09,
        6.862223102778347e-06,
        1.3461669838337046e-13,
        1.4032325442231847e-10,
        2.7869378983952647e-09,
        -2.9507575500764794e-07,
        -6.904654401777732e-05,
        -2.081047383604498e-07,
        -1.0409365573606205e-13,
        -2.3940871285324076e-13,
        1.270933606768988e-09,
        -3.7558946960152374e-06,
        -5.05371507824245e-09
      ],
      [
        -5.560873432037987e-07,
        -1.399955429612048e-12,
        8.097081033963585e-09,
        2.8949065658630948e-22,
        6.149819222206604e-09,
        6.302526091020659e-23,
        6.802765088415326e-15,
        2.1019047924293205e-14,
        -1.2890442815298532e-12,
        3.3747769238261227e-07,
        -1.401043443614963e-08,
        -4.229638385978462e-06,
        3.9450725055274007e-07,
        4.044530647966428e-06,
        -8.345381206183539e-10,
        -5.353220791364516e-16,
        2.7675204324964303e-10,
        2.8927624027805035e-05,
        -3.355211788719832e-16,
        -6.113957278226703e-30,
        -3.922427800244309e-05,
        -3.3705033954471543e-07,
        4.17936514871019e-07,
        1.7269721410685927e-10,
        -4.393925318080617e-09,
        2.1012862292904557e-15,
        -2.1329876167779035e-13,
        -2.0654664649950477e-05,
        -1.0114060630877578e-09,
        1.4115081275152512e-08,
        -5.480072460264278e-13,
        8.797355789684697e-52,
        3.089785179227756e-08,
        6.231592263218398e-16,
        6.1122099428268e-12,
        -3.176839317040101e-33,
        0.00010058985292495695,
        -1.8352780418828437e-09,
        -7.661888634774455e-14,
        -1.1748239654644286e-05,
        3.2470005768989857e-08,
        -3.459465089841358e-08,
        -6.406121016818044e-07,
        -1.602350538885576e-29,
        1.2769368304208513e-10,
        -3.973590911870648e-11,
        9.61778667701341e-29,
        -1.9839516675282475e-14,
        -8.542274783870327e-14,
        2.728962397383016e-05,
        -7.319703149543379e-18,
        -2.6442073956821688e-08,
        9.537154239510075e-25,
        -3.4667898177719074e-05,
        -2.793375131222772e-15,
        1.3477946450421002e-19,
        -9.838035738085678e-08,
        9.71633888021172e-16,
        2.0360253549104895e-18,
        3.1165949267921744e-07,
        4.0755931389740397e-05,
        1.0003601971197643e-05,
        4.729681671075534e-13,
        7.885550776809758e-15,
        -1.1667836915762221e-07,
        -2.7804893371711634e-15,
        5.429958791533598e-13,
        -8.551369847445186e-15,
        7.173314735207876e-13,
        -5.1864943167537964e-23,
        -9.930706750225741e-11,
        -2.6892486162257617e-10,
        1.9845811616540858e-05,
        -2.98352799622262e-15,
        -5.9269645062583794e-08,
        -3.8865243103658786e-07,
        2.7294790860782242e-18,
        -6.191168162032491e-18,
        7.174531017941506e-10,
        -6.370066128623503e-13,
        -1.0891773706833354e-08,
        4.1702016505873024e-52,
        9.152823660616494e-10,
        1.6511131712576444e-17,
        -2.24963915966782e-06,
        4.4690092631098215e-11,
        -1.2016272428305446e-10,
        -2.5316400898267024e-28,
        3.280916369695884e-10,
        4.3484665850406743e-08,
        3.999692235657788e-13,
        3.188041791270822e-17,
        -2.0733301741387214e-24,
        4.422105193435604e-22,
        2.3033328717069393e-13,
        7.345210588744303e-23,
        1.772259146036655e-05,
        1.6214234829721297e-07,
        1.0055871217941823e-06,
        -1.3913760410292868e-08,
        -4.262963221157644e-05,
        -3.1401599242078423e-07,
        -3.954731005030603e-20,
        -1.303528377014727e-11,
        -1.847047037706639e-12,
        5.734372425349765e-13,
        -5.0773520534443375e-23,
        2.6193676279067262e-08,
        5.7019601386061745e-11,
        8.201622196119936e-12,
        5.658519392903734e-06,
        -2.4268911329071413e-13,
        -5.011468388452579e-19,
        -1.631592860002305e-15,
        -5.454083651485039e-11,
        -3.4593119095697865e-23,
        -9.143379597719167e-13,
        1.0508792292037104e-08,
        -6.165921568338382e-11,
        3.600386727175398e-15,
        6.024922060206729e-16,
        6.159571913130444e-06,
        6.926957953176628e-10,
        -1.120820752466849e-09,
        -1.424339083244776e-06,
        -2.3252329560146826e-07,
        9.48100650282782e-10,
        -5.0860500715216496e-08
      ],
      [
        7.901786700578408e-13,
        -1.1514980496222504e-08,
        1.0035394552583816e-12,
        4.365465554161725e-11,
        -6.719463264757157e-13,
        5.2426716943184164e-05,
        1.3253468772694662e-10,
        -4.729426620441469e-28,
        1.7689713738874472e-09,
        3.4202600664012524e-13,
        7.569008625039779e-11,
        5.179666141611086e-07,
        -4.2257371801000445e-15,
        5.214553017388521e-10,
        2.5506686728892893e-10,
        7.923005559721721e-10,
        -2.39288203392973e-10,
        1.7614975321811213e-05,
        3.5130644462610865e-05,
        -4.0266186414762173e-10,
        8.409120440430617e-14,
        -3.1580373405233985e-13,
        -9.509515040547826e-16,
        1.0465829576811845e-12,
        1.5294222799595972e-15,
        -1.4275736253645803e-10,
        2.0527672389371688e-17,
        -1.2881657270223125e-12,
        -0.0001377319209679269,
        8.261636671254851e-09,
        3.6235656420426867e-07,
        2.0063522138864566e-06,
        -9.968486182628948e-07,
        3.991989709559564e-05,
        3.926385239075325e-12,
        -1.8629513264112528e-11,
        7.522188870478641e-26,
        -1.0290860307130948e-06,
        -6.420662363659082e-05,
        -5.39557384149269e-11,
        -1.3172140523852763e-09,
        -1.3103098104380665e-47,
        -3.642718978497084e-15,
        5.468639764122404e-33,
        2.3264203768994969e-10,
        2.6468686864462497e-06,
        1.3547900936251707e-10,
        -1.0751293559826702e-05,
        -5.2352309411831605e-12,
        2.447620335992455e-07,
        1.2290903277890087e-11,
        1.045113422620674e-24,
        -2.0916829736501344e-23,
        1.2441966178783824e-08,
        -5.444803254037143e-18,
        4.8650072756862725e-14,
        2.2038688949848734e-30,
        1.2899968594935523e-10,
        -1.0608308523960643e-09,
        -1.895893998645632e-13,
        4.813468851212073e-08,
        -1.5218761197466566e-08,
        -5.752853115255075e-13,
        -0.0001532220724884973,
        -7.1235690606674255e-31,
        8.449153666641703e-17,
        -2.0826917338992574e-12,
        -1.7821660361679432e-10,
        -1.334398616736658e-13,
        1.0583471231151777e-06,
        5.775226701965388e-07,
        -1.2620715307251446e-12,
        -1.3822011185859269e-05,
        -1.034132210352385e-15,
        -1.4439706061830112e-07,
        -4.3628492736959093e-08,
        1.1765044240682603e-05,
        -1.5756441359081083e-08,
        2.0359096293928385e-16,
        -1.7710032507398775e-17,
        -2.6871849966022553e-09,
        9.043898575671276e-17,
        6.067514309434715e-11,
        -3.4728625182428814e-07,
        2.5881600728295434e-24,
        -2.920195693375452e-10,
        4.022245273955252e-12,
        -8.29922004493995e-05,
        -8.531549766592107e-07,
        7.36214130136549e-10,
        9.770626606943948e-15,
        -2.1172705477674386e-11,
        1.556113424149981e-14,
        2.9491034459251606e-09,
        -1.523966836125031e-06,
        3.1824183208192756e-05,
        2.6495220115863824e-06,
        3.343485742334319e-33,
        2.201905803739457e-11,
        -2.6471267242891424e-10,
        -3.4048906972556034e-12,
        -2.0768618393549887e-20,
        1.296381944932035e-20,
        2.5535773598146887e-06,
        1.4043309538406277e-14,
        -2.0986045057859449e-10,
        -2.119667559682435e-16,
        -2.2441238264489246e-11,
        4.3347404007316715e-15,
        -4.252522827068701e-15,
        -3.1917851274244736e-14,
        1.6677832608079293e-11,
        -5.383105048390515e-14,
        -4.876761362903405e-15,
        -1.4368272718960767e-13,
        3.196891469290786e-33,
        4.034439157063891e-16,
        6.21727319354677e-08,
        8.41503826042801e-08,
        -7.671651178600599e-13,
        -1.5955821102263116e-14,
        1.966932724638813e-07,
        1.0854909290657818e-07,
        -4.889018735664379e-14,
        3.404152007783641e-12,
        1.210969770993548e-11,
        -8.363031875139602e-06,
        -6.3140620674875596e-09
      ],
      [
        -2.5807895640592814e-27,
        9.862718636599904e-13,
        2.916217211558794e-07,
        3.1865447156936002e-18,
        -1.8051771212435642e-12,
        -7.676283756548913e-06,
        -1.8749511823627712e-11,
        4.130885829009503e-14,
        1.233109402392022e-08,
        -3.694967482022902e-08,
        5.8039177389433987e-11,
        3.7984279442963164e-27,
        2.6410635195696764e-14,
        8.987784031523783e-13,
        -5.017436386881103e-28,
        1.9640462316011632e-10,
        -7.236198750174445e-13,
        -5.730938211230211e-18,
        -0.0001517900382702211,
        -1.0814250111043863e-13,
        3.1015352450452115e-13,
        -3.383662272977795e-10,
        -1.5869387246823067e-15,
        -4.071165146963959e-08,
        1.2352194897435392e-07,
        -3.1406724654264926e-10,
        2.3130455740288484e-08,
        2.3862344026408094e-16,
        -5.594295786759628e-08,
        2.5881254835077518e-05,
        -1.6518242155580744e-09,
        4.878156961741001e-18,
        1.967311805749987e-05,
        -1.2498967133243839e-09,
        1.3684112642995195e-28,
        3.215365852280963e-07,
        -6.457303436190389e-10,
        3.752614459166231e-10,
        -5.429712564569111e-07,
        -2.2771726284372355e-08,
        -1.8558710967459299e-06,
        1.721978954734707e-11,
        2.4565331493459634e-07,
        1.0011122266825163e-13,
        5.0250005518845814e-14,
        2.3882322597652605e-09,
        3.894095496057897e-33,
        -2.241399061879567e-13,
        -1.9245508224456272e-23,
        1.0274105354942858e-11,
        -1.9939760213145707e-19,
        1.3275751189066378e-07,
        1.264496230633518e-07,
        -1.5342911583524751e-22,
        -4.717518100369857e-13,
        1.758792155752813e-11,
        -6.445198378429614e-10,
        2.7448046106638525e-21,
        5.536208667241805e-06,
        -8.167592069422383e-10,
        -1.577112200302841e-33,
        9.994948366204862e-17,
        -2.9935888615835755e-10,
        9.41996415167421e-15,
        -1.3948457422392348e-07,
        0.00010510037378433133,
        -5.727920573711954e-08,
        -1.2493026416650368e-10,
        8.686620787800514e-14,
        4.015766795818227e-05,
        -2.1828410081708003e-11,
        -2.0304216694348466e-07,
        -2.648357601145896e-12,
        -5.916265877080808e-06,
        3.1423821436992015e-15,
        -6.888209678773261e-13,
        7.037391718980016e-15,
        -2.144169125418461e-06,
        5.193783114107458e-09,
        -5.16863627915507e-05,
        1.0817174662614271e-14,
        1.023919710600378e-06,
        -1.2374731563327322e-11,
        -2.9629437435459635e-09,
        1.0869587675228325e-12,
        -1.9488144685934616e-23,
        1.6391887923402832e-22,
        6.321074966677991e-13,
        -4.418059635906561e-32,
        -1.149601388395831e-06,
        -4.5804358967852726e-15,
        1.933788664594041e-13,
        2.8891160836698e-12,
        5.533783791964897e-11,
        5.8946045802153206e-08,
        1.0383012458284359e-17,
        2.7859064803438643e-09,
        2.072398837633869e-23,
        1.2500930429487733e-08,
        -5.821237041454601e-13,
        -5.034510664200258e-16,
        3.0877630657132924e-13,
        2.140779970809437e-14,
        -1.3399574575247136e-10,
        -8.501985187432314e-06,
        2.035180293717404e-10,
        2.8619835614815426e-14,
        -4.793074612361293e-10,
        1.272555054171688e-14,
        5.556845002459504e-20,
        8.77273679841692e-15,
        -1.4311364908042533e-05,
        -2.5178468930644148e-06,
        2.2693388426927071e-10,
        1.3625735559566103e-11,
        5.850098271623824e-16,
        1.0702403525834196e-15,
        -4.327999825617776e-09,
        1.4125205563011267e-08,
        4.876605271834235e-07,
        1.6008306367169307e-13,
        6.222652806228541e-05,
        2.9699987195745e-09,
        -1.948894349656835e-05,
        9.876902781881022e-11,
        6.489082656837692e-12,
        2.421933936946158e-06,
        1.3256751863497328e-12
      ],
      [
        5.545587251618083e-11,
        -1.2321383406544116e-11,
        2.96025028125976e-14,
        3.7956046286049135e-20,
        9.427045216362314e-06,
        -4.7257423499849263e-14,
        1.384655849044711e-09,
        8.740372544478351e-07,
        -1.569418709986933e-08,
        -6.883181443380196e-08,
        -6.252294078837386e-15,
        3.1757010499647227e-15,
        4.903869303819492e-09,
        7.130796183256427e-06,
        -6.64505810160206e-07,
        4.518235519235405e-08,
        1.3294809708340322e-06,
        5.779868808515689e-08,
        -8.761536435571591e-14,
        -0.00015436709033043493,
        -3.577791149153544e-07,
        -6.584034029009023e-06,
        -2.039851616289186e-08,
        -9.17967554872956e-16,
        2.8223755678944285e-09,
        4.3397122490807745e-13,
        -1.6164480414109866e-11,
        1.3415715882759503e-06,
        3.468773429091927e-14,
        3.633745296731174e-07,
        2.039133307153414e-08,
        1.8689398091095847e-16,
        -3.066140575991343e-11,
        -2.3720509097551278e-18,
        1.0031670565916288e-32,
        1.5080887067826763e-22,
        -2.184809398040467e-12,
        -1.0151046049142287e-09,
        1.7753681721192782e-16,
        3.895903711206827e-27,
        1.6211708148008974e-19,
        1.1095184892673736e-08,
        -3.9049930212254793e-28,
        -8.673782098526802e-17,
        -2.552958288519724e-08,
        -5.164560256174749e-09,
        1.4437860862967135e-24,
        -1.557768683659092e-07,
        5.9171631689689185e-27,
        2.441924610633524e-14,
        1.5583109190151655e-12,
        -1.34697300663307e-07,
        -3.5653083909936763e-22,
        -4.313328239434928e-13,
        3.052007350736888e-05,
        -4.806210751175135e-21,
        1.9022462473900726e-15,
        4.922741483384522e-25,
        1.0852784707405276e-15,
        -3.737209668464083e-12,
        -4.409434144138028e-07,
        -7.760262676331688e-12,
        -1.6468511681844403e-06,
        -1.6805006781220162e-19,
        1.0115572262588934e-17,
        1.1867697016711957e-05,
        1.457933199327348e-20,
        5.914124062070442e-14,
        -5.745159254025271e-10,
        3.068243401224139e-10,
        1.500031072884473e-13,
        3.8840800143654904e-24,
        2.4695233113681484e-10,
        1.76163740614341e-06,
        -1.0626278426112685e-07,
        2.5550433053041977e-08,
        -0.00011859854256070348,
        -7.979657292162149e-28,
        -1.3007305665852102e-14,
        -1.0999203672809071e-10,
        -7.661710806487328e-05,
        2.383133695977951e-15,
        -7.583130996377666e-14,
        3.2436343263927115e-13,
        -1.9758317391802466e-15,
        8.004252500614203e-07,
        -2.0643118968646554e-29,
        -2.7997112813482456e-09,
        1.1482750159981403e-12,
        1.1548833080263008e-10,
        -1.366491228795897e-07,
        4.6290969512147745e-12,
        8.976404932239259e-13,
        -1.2480037641878476e-09,
        -5.810024485873589e-29,
        -3.956886960597534e-14,
        1.6450975790308096e-14,
        -3.8270407582041425e-05,
        3.558532061552478e-15,
        -9.971723814935874e-17,
        4.682924626641179e-12,
        -1.7343630976432594e-15,
        -8.670208420172698e-10,
        -6.491338381145156e-13,
        -3.6753538000869637e-06,
        1.3135046340995825e-13,
        -1.6353618699475182e-19,
        3.3049883871207025e-11,
        3.8151147091553815e-19,
        -6.654921177995031e-11,
        4.2551193090685916e-13,
        -7.292258166880676e-10,
        5.870887241460633e-11,
        -3.923392158354607e-08,
        -2.9975218760047e-10,
        -1.3839947660117167e-10,
        -1.0462545920447471e-06,
        -2.04201488550387e-06,
        2.7861655256282754e-13,
        -1.1888020435855156e-08,
        3.219121609501598e-13,
        1.7462333656073913e-12,
        9.139416445910172e-58,
        4.129683300946577e-09,
        -5.032521320328006e-07,
        -3.0689931800714897e-14,
        -3.973744657516686e-11,
        1.5230723870571925e-17
      ],
      [
        -2.0685786144080613e-14,
        0.0001428758732529311,
        -9.900417378106208e-19,
        4.103645707573112e-06,
        2.1614346996033273e-28,
        -6.446448632485866e-08,
        -5.826605304897056e-10,
        2.2788414446914482e-10,
        7.5707813952804e-16,
        -2.0695324606986245e-10,
        1.3943135554899206e-15,
        -3.202064635909814e-08,
        -1.494109850894327e-06,
        -1.088521446748539e-07,
        8.547150604603798e-09,
        4.00697902062832e-06,
        2.998145148305297e-16,
        -2.2261448151257338e-06,
        7.496785481630264e-07,
        9.256810382526673e-08,
        -1.0467106515461889e-10,
        -1.9371201080610274e-15,
        6.359077113986723e-16,
        -2.883849388703592e-10,
        -1.6376763012323722e-13,
        3.5900854820979674e-08,
        -3.275041886741169e-15,
        -1.5939095349192532e-13,
        -2.9858933740265213e-05,
        -2.1759818524532776e-07,
        4.715720054692634e-06,
        -7.113352693622835e-13,
        1.2114868325325969e-05,
        2.2032029201462952e-06,
        9.700114438047555e-13,
        -3.4616424354531185e-12,
        -2.882243678364605e-09,
        -4.420553042896732e-11,
        1.587274935272509e-13,
        -2.7544244341679432e-12,
        7.909462644628575e-09,
        -9.44585387940869e-10,
        -3.23564791293581e-14,
        1.2994911135626427e-09,
        -5.064066566318849e-25,
        5.8534697598909456e-09,
        -6.380722213403517e-21,
        2.247743041831545e-21,
        -1.5387561382087153e-08,
        -6.02194789504398e-17,
        -5.520033318971127e-22,
        -3.0922730372408655e-18,
        3.966559563841943e-10,
        6.856868202199324e-12,
        -1.833668751798473e-06,
        -5.202071722430401e-09,
        9.707545041371812e-16,
        1.877680248582208e-12,
        -3.711187798594218e-11,
        5.960975778484116e-16,
        -6.077152081636077e-10,
        -7.053879577576167e-13,
        9.045647218721111e-07,
        1.8913335093812326e-15,
        7.392996004831111e-16,
        -2.4900126795107487e-11,
        -4.787382529860989e-15,
        -2.085140319255378e-12,
        -1.0134457115949831e-26,
        6.764876520954144e-09,
        -3.2335306564940814e-15,
        -3.239586119153348e-15,
        3.5853811590185762e-12,
        -3.5933098317442956e-05,
        -3.1886669461003913e-12,
        -1.5312375139349462e-08,
        1.050301696150311e-11,
        2.885594770523952e-09,
        -7.962780101734054e-13,
        2.7918976589405785e-14,
        8.007743250966893e-10,
        -3.034921989717612e-31,
        -1.0920866852017864e-10,
        -8.411985069729178e-10,
        4.957665423868012e-08,
        8.693052380441604e-11,
        3.515286147660816e-10,
        2.1061600129910556e-17,
        1.4050040866953496e-13,
        -5.216379265805142e-13,
        -8.964643347359953e-17,
        1.3256122555377676e-06,
        -1.3867993200188118e-06,
        2.141116531769996e-05,
        2.3106277250693045e-10,
        1.1498016421204149e-06,
        2.9350772093826385e-05,
        -2.7562049861296618e-12,
        1.8382072842983484e-11,
        4.755722291905338e-16,
        1.2065789895534127e-14,
        -3.123551991689457e-05,
        2.3161554517760623e-14,
        6.533022920495567e-12,
        -1.798776211002132e-08,
        2.8860355262269855e-11,
        -1.2719792309702574e-24,
        -5.407056225572936e-09,
        4.9176319853922025e-15,
        -2.0993927148965242e-15,
        1.1965468022846517e-14,
        -1.7319559948726831e-07,
        -2.964601506775257e-09,
        -4.1258298266720215e-12,
        -1.5144289427196482e-17,
        3.1655737748066366e-10,
        -9.190157483042785e-08,
        -1.815308373407478e-13,
        -2.2315165036731596e-07,
        -3.9291851684984447e-05,
        -2.6498649520195277e-05,
        1.0432148056841761e-10,
        2.1686831924107807e-07,
        -2.919417958029775e-13,
        5.450742659483275e-07,
        -4.444340839436861e-08,
        -1.7884619950813462e-13,
        -1.2345169457510708e-09
      ],
      [
        -3.7221845481629004e-10,
        -1.731537784961791e-05,
        -1.288917554847941e-31,
        1.9902894339479147e-17,
        -1.767692089567048e-05,
        -1.1517704865944588e-18,
        4.12987397986178e-11,
        -1.705376479467555e-05,
        8.981821680194787e-05,
        -2.43194611848905e-13,
        5.413291693406836e-14,
        -4.6061163213883264e-15,
        -1.4522276393360175e-12,
        4.6598032764719984e-05,
        -1.865141789250261e-07,
        9.391793363207718e-11,
        -3.827979519970015e-06,
        -6.663147490945579e-14,
        -1.7332036904613585e-16,
        -3.1860633345272946e-11,
        8.440507882332463e-06,
        -3.310429736185487e-07,
        -2.0149280596320245e-28,
        8.469706345437616e-06,
        7.76640155388824e-17,
        1.0178399112615644e-43,
        -3.502750597859538e-06,
        2.0489974562191523e-06,
        9.918320247164196e-08,
        2.245841742954854e-05,
        -3.551988309995508e-18,
        -1.4554753940727317e-10,
        -3.0972033342608945e-13,
        -6.061596654974982e-07,
        3.082993882821876e-11,
        -1.7120212693598247e-05,
        8.101695422289108e-28,
        -3.56910626778356e-11,
        -9.611529235838345e-06,
        -1.8363635068908464e-08,
        3.4655165936415774e-15,
        3.305393438351018e-08,
        7.95294895364869e-21,
        9.748100153849305e-13,
        6.138628465172088e-06,
        -2.0655541379087924e-10,
        1.9040286659598298e-06,
        -8.23351592258461e-12,
        3.806439595162459e-06,
        1.1427711542775195e-05,
        2.004401730442999e-14,
        4.559734086887377e-05,
        -5.686932627665143e-10,
        -1.988196580584991e-11,
        -7.467015359815644e-07,
        -1.773309231563119e-08,
        6.677755419230069e-08,
        2.4282265926165582e-11,
        -3.764267659851869e-06,
        6.061362437148875e-08,
        1.1046087166720875e-16,
        5.453699370368151e-08,
        -4.2864427285322136e-10,
        2.870438041213366e-23,
        1.1046074421003288e-06,
        1.0691129981512898e-08,
        5.808891453521081e-06,
        2.0499435225951366e-05,
        -3.0087105708523043e-43,
        -2.0294370301744357e-06,
        -1.284752313930871e-14,
        -4.478628948844517e-11,
        -5.067344169052967e-06,
        -3.334723620902037e-08,
        -1.2859399806693483e-09,
        -1.7198018174244778e-11,
        -1.7152092622977214e-05,
        -5.378089290694059e-05,
        1.2216876989579999e-15,
        -4.114463413789296e-05,
        3.967997712385341e-12,
        -2.7080787926794473e-05,
        7.115397314729095e-11,
        -2.6511003400973545e-05,
        2.1146521499206244e-17,
        4.094041965573389e-05,
        -2.4100311352769186e-06,
        -2.344177556184018e-13,
        -6.1622866906110596e-09,
        7.82298976696608e-16,
        -7.970605001196092e-23,
        6.519184007523055e-10,
        -1.1672137914313044e-05,
        3.796315727791163e-06,
        2.0505197374813823e-10,
        5.302925397519701e-07,
        7.066421277670629e-10,
        -2.0263147912376254e-09,
        -1.1785411115180747e-17,
        2.09850517097568e-17,
        -5.3617754432210305e-15,
        1.0448388027132457e-45,
        -2.1506975177372847e-05,
        2.8282089631367366e-15,
        2.4137178118850394e-05,
        3.28934815600154e-05,
        4.7109648468245266e-05,
        1.2152605576148645e-13,
        4.485905141858262e-05,
        6.096492617203931e-05,
        -1.7738834290493913e-07,
        -1.3115326532061127e-09,
        4.104583311867334e-05,
        -3.232025421815844e-05,
        1.6492170142547266e-10,
        -2.2552440193448472e-10,
        -3.432638754073881e-05,
        -2.1399868723672375e-15,
        -3.4503706676258944e-23,
        4.574258912789214e-19,
        -6.384841256801469e-07,
        3.894241069651795e-12,
        5.274226724074045e-07,
        1.3405997884058352e-05,
        -1.9959298885839532e-06,
        -1.2758743752144682e-05,
        -1.90344204360764e-21,
        -5.12074240140809e-05
      ],
      [
        -1.2719582757883953e-17,
        -1.0992492581504708e-05,
        -4.739677593078272e-13,
        -7.968925345969221e-15,
        -1.5637520357841674e-05,
        1.0260574680889612e-99,
        2.549384014079647e-07,
        -3.7576825272362474e-11,
        -1.5413996987291226e-09,
        -4.831125031989146e-10,
        7.691571840414852e-07,
        4.679675671522056e-06,
        -2.968929257330781e-14,
        1.0232393819884213e-05,
        -2.8426401593533818e-08,
        7.525064167803959e-16,
        -8.504280078083676e-08,
        -2.6614439662395054e-11,
        7.887645248308793e-12,
        1.1813240206853067e-08,
        5.4980235457692235e-05,
        1.9772413249266788e-07,
        2.393071034787878e-13,
        -5.00807469293304e-06,
        2.4776777050048776e-16,
        6.446474096896877e-44,
        -2.7744497926905917e-06,
        4.428157455959553e-14,
        -7.565073511607626e-12,
        2.2392796689570585e-05,
        1.3947108769143059e-118,
        1.0993704520494134e-10,
        -2.3588036150077766e-12,
        -1.0886273884719118e-13,
        -5.5007502939565595e-05,
        3.652794161398944e-05,
        9.35285833619114e-112,
        -5.443696167292251e-10,
        -1.466580298681617e-05,
        1.1296292581562282e-07,
        1.3040592879775503e-11,
        -3.238543154740932e-09,
        4.1564798032235276e-14,
        -2.4997583553897673e-37,
        -2.1656130751944166e-24,
        -1.3313283783557417e-30,
        -5.543716767045608e-06,
        -3.6129254230662614e-11,
        1.0921022507598256e-05,
        -2.2132123482611097e-05,
        -3.0663033403118716e-14,
        0.00015150389585821825,
        3.8422854636970245e-08,
        -1.0885932023332287e-12,
        -1.6371050015451606e-06,
        -1.8668215074399015e-14,
        4.772127145810445e-12,
        1.790987540142831e-15,
        -3.9972542641734406e-05,
        9.990195612072638e-08,
        -1.5360886431615953e-15,
        -9.81519836888211e-14,
        -2.8157681798232785e-09,
        3.724531659433982e-24,
        -2.0541927289627428e-06,
        -1.246810017591457e-20,
        5.40898904698459e-05,
        -2.4504887196854375e-05,
        3.102550565716412e-43,
        -8.007651062293873e-06,
        -2.8896685006689057e-65,
        -1.3508028268770185e-11,
        4.64780554305756e-05,
        6.4681931887904486e-12,
        -7.413163528201599e-09,
        7.480827794704258e-25,
        -2.3404092060115412e-05,
        -3.579944836887494e-05,
        4.095098827031888e-18,
        -7.419203858967419e-07,
        -2.470878826748994e-12,
        7.052489770313255e-06,
        5.4920254395301064e-24,
        1.1564746382489556e-08,
        -2.1723980453215237e-06,
        6.63559408032271e-05,
        -5.534976968568636e-07,
        -1.3046000086888816e-12,
        -1.911822326858144e-09,
        9.865776546327798e-12,
        1.8697194737487584e-05,
        -2.8757159059448453e-09,
        9.25159134410426e-14,
        6.598425362560521e-06,
        -1.7471521761517926e-08,
        -1.891896310452286e-19,
        1.4366456398595894e-10,
        3.0076327272889924e-64,
        1.602305732767533e-14,
        -1.308495185595413e-28,
        -4.553949395052326e-08,
        -2.4787912383738132e-45,
        2.540877041485382e-05,
        3.555971729758737e-10,
        6.124787925566852e-05,
        7.437682364641029e-05,
        6.196698476036566e-05,
        1.769251272925969e-18,
        6.669159751777713e-05,
        -1.241204105977555e-06,
        9.940252374851437e-05,
        1.064324177637967e-12,
        6.217265746042195e-05,
        -3.988075860125805e-05,
        8.234746605187755e-15,
        2.783126543089587e-09,
        1.5139203849964817e-05,
        -2.8151368712982585e-28,
        1.8909189184528967e-81,
        1.1138085443964728e-05,
        -1.5083893449529842e-10,
        4.63383191160817e-16,
        -2.298775561354663e-06,
        -1.142907816856469e-05,
        1.832063529703184e-15,
        1.982586513410427e-05,
        -3.171934046026768e-25,
        1.2630085799439844e-11
      ],
      [
        1.3067872646464932e-11,
        -7.480445698837254e-10,
        -9.104013779439364e-12,
        6.4180610302082175e-06,
        -4.3894451575847885e-119,
        8.975804312052297e-19,
        -7.5484962997322405e-06,
        -1.5348501897027987e-11,
        -8.018550915588045e-10,
        -5.552330658623539e-06,
        -8.14260545140125e-20,
        -3.635712510202627e-05,
        3.7700677903319e-14,
        2.5231590358337978e-09,
        -7.314929852022956e-05,
        3.415966079420798e-08,
        -3.0931984036707383e-13,
        8.572997764133008e-14,
        6.788793789887644e-06,
        -4.430610903813469e-13,
        -7.863712636943463e-10,
        1.1905760520562071e-12,
        0.00019252280390040456,
        -2.0202747342429447e-09,
        3.408181633681958e-07,
        -1.9669316605872833e-14,
        -5.761263725705145e-10,
        1.1519954116748915e-14,
        1.2422986217584932e-10,
        5.796861010422148e-10,
        1.3866376268181368e-118,
        1.0994217092684314e-10,
        -2.3588005489846652e-12,
        -3.167043395643575e-31,
        -1.8844725876054717e-09,
        1.3162296015907364e-07,
        1.109347197264279e-14,
        1.515870497817502e-09,
        -5.432792783264342e-10,
        4.272153583988748e-10,
        -7.926797701818729e-14,
        -3.147421032367072e-10,
        5.569201168946084e-15,
        7.932768395016751e-13,
        -5.078553266396355e-10,
        -1.7225562010389165e-10,
        -9.480688272035916e-10,
        1.5810754670923288e-10,
        6.370543116415526e-10,
        4.989839599249043e-09,
        -4.494895925534701e-23,
        -7.950921334344432e-06,
        -1.591971305737112e-17,
        -3.6705179880804207e-07,
        -9.366084200741329e-10,
        -2.970308507837276e-14,
        2.184223142650605e-15,
        -1.2113718398655332e-12,
        1.5436402153514253e-09,
        -2.996352743073297e-11,
        3.705358753446491e-15,
        3.0772020454058144e-11,
        -2.8157680423583623e-09,
        -9.533655576694209e-24,
        -9.89425085121472e-25,
        -6.917196511628096e-15,
        1.3592508498959106e-09,
        -1.435995864558214e-09,
        -3.642380020640007e-44,
        4.532133460359099e-71,
        -5.4235028503556115e-15,
        -5.569210095931446e-18,
        2.074513548424591e-11,
        1.002026598157729e-12,
        -7.413163194723628e-09,
        -3.0107583081434146e-14,
        2.4928473999366675e-09,
        -2.970155811819062e-09,
        7.30993417228352e-17,
        -8.447989710603386e-08,
        2.1954935186565413e-10,
        -1.4207111307480794e-09,
        -1.0633222742786141e-07,
        -1.7280709095633297e-06,
        -1.6238465966444015e-08,
        -1.6324968846452965e-10,
        8.738734674892466e-14,
        -1.30463450237178e-12,
        2.8992601106338825e-17,
        1.652595306577832e-20,
        1.5870375493250312e-15,
        -2.8757038162572257e-09,
        1.7715709870388792e-15,
        5.072269268901439e-09,
        -1.4002035755164024e-07,
        1.0038761800882109e-06,
        2.0148866301929565e-10,
        2.529968275190278e-25,
        3.7334137832941646e-07,
        3.04697330449911e-08,
        -1.6497004836873522e-06,
        1.6936280078556409e-09,
        1.399139012291192e-09,
        9.152480949111415e-11,
        -1.091465120345144e-09,
        -1.186900472205468e-77,
        -1.2914631463176597e-09,
        8.272061813831104e-09,
        1.3664659677521013e-09,
        -1.7183441144630658e-11,
        1.1838185421569896e-06,
        -5.92156546412669e-11,
        3.007507721423272e-10,
        2.424656651457682e-09,
        -3.732016551766566e-12,
        2.7831241360614395e-09,
        2.1080335335987134e-16,
        -8.691504709575724e-09,
        3.0853011724820164e-07,
        9.425737247461622e-15,
        3.361224003674453e-13,
        -1.2634210177763534e-13,
        3.04809764178448e-10,
        -5.272166747435438e-09,
        -7.567068508880637e-14,
        2.4867340839455627e-09,
        -4.305508659640445e-09,
        6.55292493918309e-06
      ],
      [
        -9.900407402408308e-13,
        -3.16486032747461e-10,
        -8.852987997921598e-14,
        -1.9702584368580854e-16,
        9.085959404268606e-22,
        8.23874211812807e-05,
        1.6211755669571714e-08,
        2.1108475646365799e-10,
        -7.206012910329059e-14,
        -4.480816695504315e-15,
        -3.656455480074254e-14,
        8.003815315345372e-15,
        -1.5199144822564157e-18,
        3.976988740780479e-10,
        2.550896937568083e-13,
        -9.836036675355682e-09,
        -6.361873643550532e-08,
        1.0678267408292275e-05,
        -1.2197861915528252e-11,
        2.1303817911337765e-10,
        1.4077359099549376e-11,
        -1.031684527478363e-13,
        -1.5965182391057627e-17,
        6.32610371837257e-10,
        -8.450262371115735e-06,
        7.982583779578756e-13,
        -9.721988004510082e-11,
        5.6313655859323774e-15,
        6.840091513791878e-10,
        5.978782074690072e-10,
        6.836723657665878e-20,
        8.177344097820377e-11,
        -3.4252015051812326e-13,
        4.2659301198004176e-10,
        -9.035319990494281e-10,
        1.0479164695424904e-06,
        2.875929928901411e-14,
        2.1209410140467278e-10,
        2.5732042994367347e-11,
        -8.346717935578349e-11,
        -5.5822920182683866e-14,
        1.2229609308554337e-09,
        -5.348446559153273e-09,
        -1.3286423660501172e-10,
        -2.1786797384512553e-14,
        -1.593599230318287e-07,
        -4.340828695348896e-10,
        -1.64842937008124e-07,
        2.3452718040354264e-11,
        -4.812249756765089e-10,
        1.2473321520995727e-08,
        -2.8967217307360496e-13,
        -2.8712219931945206e-05,
        -1.9474443747818643e-07,
        -3.879171803501988e-11,
        -1.2234226417032158e-10,
        2.884773263717111e-07,
        7.27163341782338e-14,
        3.4771276949208625e-10,
        -2.4522167055270435e-05,
        -8.354302075058178e-05,
        3.563783877935151e-10,
        1.438804648900243e-10,
        -3.75103903713664e-08,
        4.709082163020373e-10,
        4.612660778192849e-16,
        6.364723535879203e-08,
        2.3433284391283064e-10,
        9.26956102442845e-16,
        -1.3737844691098612e-25,
        -5.342085110606279e-12,
        -6.669619674597088e-10,
        0.00012457313460314935,
        -7.66481871550566e-16,
        -1.1739418547016546e-09,
        -2.5135810339948963e-13,
        -5.064788078546913e-10,
        -4.096015568801251e-10,
        -2.2436526055736507e-12,
        -5.495941362613792e-09,
        1.049742996458448e-06,
        -6.938778404761434e-11,
        -1.5418546325211853e-06,
        -9.12390125870382e-06,
        -7.967658432368119e-13,
        1.1943558758267364e-10,
        -1.7125870455834307e-05,
        -1.1806098690351328e-13,
        -2.5178243875745586e-11,
        1.774701743860385e-12,
        6.182020260422465e-09,
        -5.888316823336927e-10,
        4.0292836887674176e-07,
        -7.857882726773942e-10,
        -1.6560431050475662e-08,
        -1.6083466982988942e-10,
        -4.5763160119069045e-07,
        1.513178149631324e-10,
        1.1783087057184736e-08,
        5.490198309549619e-15,
        5.623077412590763e-12,
        -1.0515651537953932e-09,
        -4.2483929420768744e-10,
        -1.2376792394967167e-08,
        -4.935506116963539e-11,
        2.8348003551059495e-78,
        -3.879900474815385e-10,
        4.3224957521620565e-13,
        2.0639379403456757e-10,
        -1.5153776099109382e-12,
        1.0117774679189554e-29,
        -2.5769752321894223e-15,
        5.416003465249342e-11,
        -3.7611513373976943e-10,
        -4.565366452613734e-07,
        1.1794487973631233e-10,
        4.80609743727537e-10,
        -1.4942641879230145e-05,
        3.768360639439958e-11,
        -4.5378125972385866e-13,
        -4.5676209658625315e-11,
        4.2025718340394457e-11,
        -3.524518091628194e-11,
        1.269251845454523e-10,
        -1.9826243733912322e-09,
        -1.9449729287887792e-10,
        1.8871638969526575e-07,
        -1.6728197112720156e-10
      ],
      [
        9.987980966877475e-14,
        -4.308455937462345e-12,
        -1.1466236724898172e-15,
        -2.4997085693711233e-17,
        7.22112134479767e-18,
        -5.654749429141978e-09,
        -2.492518095881716e-10,
        4.320415768935408e-11,
        -3.808309080894012e-08,
        -7.419880692309004e-10,
        -1.9760409700744032e-11,
        -5.168360624414837e-09,
        -3.09078868076576e-11,
        8.201070294768836e-24,
        4.217458691359481e-06,
        9.01136925762073e-15,
        -4.682755178214904e-06,
        -7.750267143825879e-09,
        6.963709643591261e-09,
        -8.27397423398322e-11,
        -1.2416949380614214e-16,
        2.73103703052073e-07,
        1.0952505450484278e-06,
        -1.4417924569669475e-06,
        -2.4036082023385093e-12,
        -2.2362951232909635e-10,
        -8.255670329789145e-17,
        -2.3013026180219177e-10,
        -1.82897293107387e-13,
        -8.400593812176099e-10,
        -1.7032997401984625e-05,
        1.198085758734942e-06,
        5.813037996383426e-15,
        3.178071999877229e-07,
        -4.712675390707377e-05,
        -2.5661727379490877e-28,
        -3.3406411902387705e-05,
        1.8748799323927132e-16,
        -1.8816325238301446e-24,
        3.703333614316452e-16,
        1.7537569069508364e-19,
        7.414741375893963e-07,
        -5.098855479244107e-08,
        -4.667373838923857e-16,
        -8.538041141843793e-08,
        -2.167431976669953e-05,
        -3.011137887145734e-16,
        -3.284360957442255e-14,
        5.162559502941697e-12,
        3.370085283892864e-14,
        -3.184003811362229e-09,
        -1.2473095122609975e-08,
        3.34242923877074e-10,
        -1.006480743851363e-05,
        -5.228203894905529e-19,
        1.0607908287661698e-10,
        -2.940877107072224e-08,
        2.6323227227256013e-12,
        -1.119011954389173e-10,
        7.582581242388775e-15,
        9.081025993125187e-06,
        4.8090609504619545e-15,
        -7.247510193692644e-16,
        -2.347013938649674e-05,
        2.9351315469603973e-08,
        -1.5906287585777898e-05,
        -9.31578986508792e-14,
        -1.68093020103528e-11,
        -1.0807374143210073e-08,
        6.276588654827479e-05,
        5.254859465948309e-07,
        -6.722578256274457e-05,
        -2.0265347222274812e-19,
        9.699109827669122e-17,
        1.5512286910567688e-14,
        1.837936965585454e-05,
        1.3801992714683788e-26,
        3.598299380256433e-08,
        1.0992742468369715e-09,
        7.866161732339703e-11,
        -1.0197478208328902e-07,
        5.759030238329693e-15,
        -6.34434119885394e-13,
        7.678946994395556e-05,
        -9.961833508616487e-14,
        4.033478707497004e-05,
        8.200667796511156e-15,
        -1.170554474472464e-09,
        -3.0661085796519444e-14,
        -2.9722819333950143e-15,
        5.230409678415188e-11,
        -6.093811817756374e-19,
        -8.246773912732395e-07,
        2.541644443570342e-14,
        -2.7074061619470583e-17,
        -3.6492069893721554e-08,
        8.57234044897854e-15,
        8.740016293356202e-14,
        -3.3664441902657734e-08,
        1.1530053213499037e-10,
        7.583032901550573e-13,
        -1.9392004317098568e-16,
        -1.5849262754582968e-07,
        -5.958908666064956e-16,
        2.892837775623844e-15,
        8.179019634203528e-05,
        -3.210709511800077e-13,
        -1.0965912711181035e-18,
        -2.2047303979586008e-10,
        2.3761662853775426e-13,
        2.311215916501921e-15,
        -2.563674293322515e-10,
        2.8363401861767804e-14,
        -6.532465063640726e-15,
        3.01387935699284e-07,
        1.6144970785393622e-29,
        -2.1616528481204595e-30,
        -8.67464624106868e-08,
        -1.0016711651874087e-07,
        -4.017221280899858e-16,
        -2.7825322928385323e-17,
        3.83652665075196e-05,
        9.894440023198381e-15,
        -2.609278097936562e-06,
        1.622255152268753e-06,
        4.388154794743181e-08,
        1.5267836745639988e-05,
        5.2354278739400985e-09
      ],
      [
        -1.4246842693932119e-06,
        -1.410141623833502e-16,
        -8.401165611182963e-11,
        3.329339273438838e-14,
        1.9191886451698743e-09,
        -1.4206813405293581e-05,
        1.0296250401534977e-26,
        -6.223088671447952e-14,
        -6.322235636717386e-14,
        4.7002515050481085e-11,
        -1.4856644950825037e-12,
        1.7294833980700247e-07,
        4.084852232582042e-08,
        -2.8656537712497916e-17,
        -8.065122292923637e-11,
        -7.2290504260362965e-06,
        1.461890394687326e-14,
        1.568211230582169e-10,
        -3.404898016341482e-20,
        -1.6488318904057288e-07,
        -0.00013132901941650154,
        4.3927823766735243e-13,
        7.262814575818967e-20,
        7.279493906586494e-15,
        -5.1081613537660635e-09,
        2.2595067165564095e-06,
        -9.272198673508629e-13,
        2.3797340700027497e-13,
        -5.435151873625764e-27,
        6.608490059967409e-17,
        4.127393121094616e-32,
        -1.0869618745393205e-12,
        -2.0224313543206533e-05,
        -1.3532345709838869e-09,
        5.908269735372663e-10,
        3.415535388130597e-11,
        -4.964768658237615e-24,
        1.0886971110552563e-12,
        -2.7148224588422914e-08,
        -1.7634594235136444e-05,
        6.988798444729722e-16,
        -3.095247916578168e-09,
        1.0403879381481683e-09,
        6.715197564917506e-09,
        -1.113954041887632e-09,
        -1.0154788625890657e-12,
        4.349909794380119e-09,
        2.2556697941484643e-26,
        -2.154956316050392e-14,
        8.249921433823621e-10,
        1.0122034356295065e-11,
        -8.705564767753349e-11,
        2.1878314866518973e-07,
        -1.062896359840458e-19,
        -7.091944866637077e-19,
        1.37272056182095e-07,
        -1.1062924565730295e-12,
        8.635211486002954e-12,
        6.433068063757044e-13,
        1.9334035610475393e-08,
        -3.683618295234182e-11,
        3.067097780568804e-11,
        -9.763791635940517e-09,
        4.96621525055203e-05,
        4.912164123076106e-16,
        -6.0877288806736985e-15,
        -1.7356824916415347e-51,
        7.238566672306574e-13,
        5.4854823072103975e-15,
        3.340653160144427e-18,
        3.781883874406767e-05,
        7.227789981963274e-18,
        3.831979954703697e-16,
        -2.565816467127299e-09,
        4.733600739256664e-16,
        9.808451516501546e-09,
        -9.156461190011527e-15,
        -1.1802175778549998e-09,
        8.246278588298536e-13,
        5.178936014033468e-28,
        4.009159035996192e-14,
        2.4827888815990762e-20,
        -6.648089580202975e-19,
        1.955365808374849e-14,
        3.8426324387237664e-25,
        -3.2614659949937183e-09,
        4.459206769691697e-11,
        -3.968673465903566e-06,
        -6.472536927334967e-27,
        6.6742227501219805e-06,
        -1.2958844283965473e-13,
        -5.459925169488267e-07,
        3.833914271892507e-29,
        1.3340162272703979e-06,
        1.6706290728078527e-14,
        8.089652963613234e-12,
        9.014078316864109e-11,
        5.564742846717698e-10,
        1.9362092905403092e-16,
        6.323104341798494e-06,
        -6.43054631119409e-10,
        -4.374952064251426e-08,
        1.836699108544706e-07,
        6.831232719704825e-11,
        -7.235030226461247e-07,
        -3.3275053355510967e-10,
        -2.0193079731012215e-07,
        -4.570101345648724e-06,
        1.8031761855209677e-26,
        -1.900390795501399e-15,
        -2.5792102713013258e-15,
        -3.1233183072038194e-15,
        9.168387554356527e-08,
        -2.763234626744995e-07,
        -1.3091266404308343e-05,
        5.006877269856859e-06,
        -6.728302591032615e-10,
        2.0012555372356942e-07,
        -5.873635216902045e-15,
        -8.420755834505397e-14,
        5.8462289051964514e-24,
        4.433168286541367e-09,
        9.071310909122645e-21,
        4.362892685906484e-11,
        -6.6953540252189486e-06,
        -9.6256592635501e-09,
        7.872372560047424e-09,
        4.46457373718398e-15
      ],
      [
        2.9757636024148177e-09,
        2.7838957462506976e-10,
        7.792922175707434e-07,
        -4.079653910503836e-06,
        3.436686580579839e-10,
        1.629332647532165e-08,
        1.8250781718624797e-15,
        -7.456023587142215e-09,
        -1.3098680552930511e-13,
        3.0033791961237423e-13,
        -4.603737645182166e-13,
        -4.5434448138809724e-07,
        2.213855087953247e-16,
        8.131809608014383e-15,
        -1.8615763229546757e-12,
        -2.693904922495744e-18,
        4.8426264927450074e-08,
        5.1288026170204256e-05,
        1.864766722719026e-05,
        -4.5530009020271896e-14,
        3.9867705763767716e-17,
        -1.0959168164950248e-09,
        3.619872410660996e-11,
        9.652878130656318e-08,
        -8.074554065561447e-08,
        -3.844244500161428e-15,
        -1.4582956619992748e-09,
        1.4488988905086987e-28,
        -1.8772212315365156e-16,
        -2.5037908237821525e-10,
        -2.134544360135684e-08,
        -3.223350305642657e-05,
        -3.004684285171676e-18,
        9.442836845890265e-16,
        1.9330428292939572e-22,
        2.8277169218236898e-14,
        -4.759572111703311e-11,
        -1.989721748316315e-16,
        4.9214944326790034e-15,
        -2.488825296654393e-19,
        0.00010710673193162866,
        -4.155938123569003e-12,
        -3.028300434100506e-05,
        -3.3288841837584656e-12,
        -3.5153709078341026e-18,
        -7.970224174710044e-10,
        -2.853230951662838e-09,
        4.675929486026414e-10,
        5.817161982257094e-09,
        -1.4217406117129836e-17,
        1.5948554158927205e-06,
        -5.218538019756544e-11,
        -5.270119340299129e-22,
        1.0862958675137993e-09,
        5.841739740867376e-11,
        -8.238593713641925e-08,
        -6.527908298848572e-07,
        3.070698116405764e-11,
        1.6114814620620576e-14,
        -2.1077000627715316e-05,
        -5.486038684593963e-07,
        3.804162716276668e-05,
        1.835035898855236e-28,
        2.3238331296112003e-10,
        -9.850477322918222e-17,
        1.6340974279660473e-08,
        -4.9065107263658306e-12,
        2.147156551722509e-10,
        1.8235436892672626e-16,
        -5.522199855600437e-07,
        -2.5041384524418983e-13,
        -4.438163093630073e-10,
        -2.239636940851445e-07,
        -2.8681602250111486e-11,
        -6.32806750940969e-11,
        2.8596368603616628e-11,
        -1.3105550423049355e-07,
        5.144165049055869e-13,
        -6.985462438283303e-16,
        9.392845160573367e-11,
        -1.0127755101445002e-10,
        2.3942256228119126e-13,
        2.881261411301802e-07,
        -7.63907976356358e-05,
        -2.379644751829045e-06,
        9.564611085343227e-15,
        -2.6758845363023972e-20,
        3.904514421516693e-11,
        1.1447078499906771e-05,
        -1.6130237726199653e-10,
        -1.3454603741344924e-12,
        2.7326510990638152e-12,
        -3.1427764925356953e-19,
        4.0966805815237407e-07,
        -1.9915571967226444e-20,
        1.585877182788336e-08,
        -1.771750759813388e-26,
        -1.657180864614607e-12,
        -7.915719614949234e-09,
        9.042130876767525e-13,
        -5.633764511447046e-11,
        2.0750412484596576e-09,
        4.961321255175047e-10,
        4.646541573722761e-05,
        1.3757405331873553e-05,
        7.742263158001864e-12,
        -9.654630481490873e-10,
        3.2770978834707563e-10,
        4.121585919132036e-06,
        1.6613855746822204e-12,
        -2.0436528751260095e-13,
        -1.3124103589280464e-10,
        -7.162768823530782e-09,
        -3.473544714843533e-11,
        -4.2427948324995096e-05,
        -4.0699000504027084e-13,
        -1.0711875789738344e-10,
        -1.9332339962799845e-27,
        -1.1822845691968948e-08,
        -1.1668568951887977e-10,
        5.6535108957547603e-08,
        -6.407762515930845e-11,
        3.880108139059996e-08,
        -1.6222652139568288e-06,
        -1.4933856412714093e-11,
        7.407495812337502e-24,
        2.6199200854055084e-09,
        1.3376334694981713e-08
      ],
      [
        -1.920095421229046e-07,
        1.2026547374959716e-06,
        1.400280823606644e-10,
        3.196967323434623e-22,
        6.290282059340238e-17,
        -1.7222980028997468e-12,
        1.1527300968080503e-15,
        5.965147929120747e-20,
        4.848079245146343e-10,
        4.3785914610654275e-17,
        -6.790381031949572e-13,
        -6.027134782780881e-09,
        -0.00011549333982495617,
        -1.5071626194213747e-10,
        2.6005192018507454e-05,
        -7.845686328860715e-12,
        1.3832375884351082e-10,
        6.233383878598085e-15,
        -1.2066688989931719e-09,
        1.2962909036899414e-11,
        -5.076759412102048e-14,
        -1.3902764639027093e-08,
        -7.685669966739598e-07,
        3.17675606304987e-09,
        2.540698482830848e-15,
        1.0163119424774669e-20,
        3.66610887083798e-07,
        -2.821688153204522e-10,
        2.273336680483177e-05,
        5.82945155036051e-11,
        -1.0813924174545307e-08,
        9.44326522908814e-07,
        -0.00012039317038712265,
        -1.8243966160738184e-06,
        3.422282911496868e-14,
        -1.0832869412063695e-07,
        -2.229258311073776e-10,
        1.0419486309431874e-06,
        -4.490416736056558e-08,
        -8.148370879960736e-18,
        5.634026299969109e-11,
        -2.2578995733506282e-13,
        4.2001669987566984e-14,
        -2.1596126277895848e-33,
        -4.204950193477249e-18,
        -2.0137672532058165e-11,
        1.5040016807460266e-10,
        1.779708607374095e-09,
        -7.837506163958077e-07,
        -9.34340855160712e-10,
        8.02949857312157e-16,
        3.419761562178636e-13,
        -7.58915641723811e-10,
        -0.00015432743054982382,
        1.2420020402119196e-18,
        -3.563512457679364e-05,
        1.1437853649781964e-12,
        5.033852690681482e-09,
        5.836457799539874e-12,
        -6.768545089504694e-10,
        3.976482927723304e-09,
        -7.388805441612678e-13,
        4.5180830466090075e-08,
        -3.4162432316540706e-06,
        -1.9702455888543463e-07,
        -8.949275507133465e-07,
        -1.4218152127441873e-10,
        1.7465987500717004e-13,
        7.846827378126094e-06,
        -5.797027205475111e-10,
        4.4208301682751454e-05,
        3.7990590841655894e-07,
        -6.893702594564158e-07,
        -2.9815861555452255e-09,
        -1.3599754668709676e-12,
        -1.3628499998428596e-07,
        -1.6863687159857297e-06,
        -1.9749453329006255e-23,
        -4.1713945281697697e-13,
        3.472483603865464e-08,
        -3.912546259296992e-13,
        -5.2752906795738535e-09,
        -7.716518622797027e-09,
        1.0515533478404363e-07,
        2.1168872656577016e-10,
        -7.533728187305469e-19,
        -3.615631027857101e-14,
        -2.7794760935291034e-11,
        1.4424428985148455e-09,
        1.905212842244924e-27,
        -4.0445535295301964e-05,
        -1.1304531396059978e-05,
        1.7473834217051993e-06,
        1.3901123673529684e-05,
        1.6248865668321664e-11,
        -3.636742659738155e-16,
        -1.774077444282952e-13,
        -6.502357594257183e-31,
        -1.6061394941221458e-16,
        2.2861437960576313e-05,
        -4.2680636462977367e-19,
        -4.07775191377041e-09,
        -7.08485993414688e-07,
        -1.878668747929631e-09,
        3.2832277154160567e-13,
        -2.1493311015315845e-13,
        2.625024522821808e-13,
        1.9513359043353156e-11,
        -4.59267526962645e-15,
        -4.3715005967326037e-05,
        -2.0235140869596397e-07,
        -5.733664468090978e-06,
        2.1932310059123775e-06,
        3.695864699466108e-08,
        -4.550397758183219e-16,
        -0.00010852336104734758,
        -1.8447693149136088e-10,
        4.2441663408177955e-10,
        -1.198983802314076e-14,
        4.384229826735194e-13,
        -8.389426572946605e-23,
        -3.652109587748297e-14,
        1.4946553214710785e-10,
        -1.783870963654051e-05,
        -2.414141410333458e-10,
        -9.916894453402759e-15,
        7.260675908857958e-14,
        1.026231727358235e-05
      ],
      [
        8.557478228560903e-11,
        1.3563670141827663e-16,
        1.4657690613313434e-09,
        3.1325064897062565e-15,
        -1.2626037051825784e-16,
        -5.3596685901969314e-17,
        -2.1026711363311483e-13,
        -1.074758663799483e-06,
        -4.8546868702946035e-06,
        -9.105258992533177e-09,
        1.314094380397563e-15,
        1.778213858923056e-15,
        1.7648681207406924e-05,
        1.3466395182418264e-18,
        -1.0220920257725124e-07,
        -9.130172579345408e-05,
        1.0676344247567615e-10,
        8.370241813223417e-18,
        1.8839060083511602e-14,
        -1.1199147612237149e-14,
        6.808371337518042e-07,
        -1.6596914873983726e-10,
        5.153304912446422e-29,
        -3.791680478027674e-10,
        -9.129105620152876e-08,
        -2.4911574381745022e-15,
        -1.6478859774009213e-07,
        -2.084413119238153e-07,
        -3.349590430605951e-12,
        -3.184909487100421e-07,
        -3.211454391556975e-20,
        -3.580813118343891e-11,
        6.41218396444776e-10,
        -6.447508583165844e-06,
        5.320632525886625e-22,
        8.25057664321458e-13,
        -2.1812239915771839e-10,
        -1.076721128736686e-06,
        1.973769543642879e-08,
        1.3216319049869584e-11,
        2.4257455953030943e-14,
        3.1775683623796403e-06,
        4.171949955022034e-09,
        -2.162645387163705e-15,
        5.596637381220644e-07,
        -7.246774166598115e-18,
        3.328270561316017e-05,
        -4.127652464650712e-09,
        3.9638826282960146e-14,
        2.5285916724563873e-09,
        1.5484169293449173e-16,
        -1.276068470697982e-11,
        -1.8631119438478642e-13,
        -2.889961595008288e-07,
        -1.4928276737678593e-07,
        -1.1491588672417253e-17,
        -1.3925656784751579e-08,
        -1.056052796961724e-15,
        -7.129688789249352e-11,
        2.7011445921703602e-09,
        1.0165799107280271e-12,
        4.057641082458065e-13,
        8.040101897344943e-06,
        -3.9246412400970693e-07,
        1.8137846936256632e-07,
        -7.799202277184847e-26,
        -2.328445187361968e-10,
        2.795711968907715e-07,
        -1.640014156325991e-14,
        -4.207648043428702e-15,
        6.376273117752192e-09,
        2.1115565280456205e-09,
        -2.3504787185086575e-07,
        1.0375385152235124e-05,
        -7.532005334144912e-22,
        5.253790004330972e-13,
        -4.934467766522085e-15,
        -1.976066133212252e-19,
        2.092106904285591e-11,
        2.729119202470419e-06,
        -1.5822774102764886e-10,
        -2.5184666849639325e-18,
        4.909221904116824e-07,
        -1.8877349046869417e-05,
        4.759112806260865e-11,
        1.665554549961163e-08,
        1.864642029504274e-21,
        -2.4298519794701735e-14,
        -6.23995044343575e-14,
        7.850512668357479e-08,
        -1.3618357403567341e-06,
        5.770810711024214e-09,
        -5.345260975612032e-11,
        -1.6078371965573028e-13,
        3.507016427680554e-11,
        1.818863827716648e-16,
        -1.9858326285116064e-21,
        1.912590398566919e-20,
        -2.908035751812139e-13,
        4.229505005477448e-12,
        2.584554812334229e-06,
        -1.615325632157904e-06,
        -7.6044459302083e-17,
        -2.886750661886184e-10,
        -3.2197520262888486e-14,
        -1.4570718291336353e-54,
        2.708624322283669e-07,
        -1.5479650319173343e-07,
        2.269486288177104e-06,
        -3.4328365504338986e-15,
        1.6086638265434776e-07,
        3.979318869781755e-06,
        8.17536261997954e-09,
        2.3501075294698813e-10,
        -5.97311313425486e-06,
        -1.6781864668886696e-13,
        -1.4250556896309847e-10,
        3.4674928146822194e-19,
        -4.7982203034044556e-30,
        -1.2437774937705023e-19,
        -7.121505331152751e-18,
        3.566806228296607e-11,
        -2.2816080329920477e-05,
        -3.221506327894889e-17,
        3.9377755778432567e-19,
        1.728672694011843e-17,
        1.3857417404080646e-05,
        4.678062396277544e-13
      ],
      [
        6.855454583553467e-07,
        -5.745541779533696e-08,
        -1.5173911450884814e-13,
        3.22844898357167e-14,
        5.8573992041081186e-30,
        -6.334949820567202e-11,
        4.4618033636866896e-07,
        1.731195291076548e-08,
        4.747429804323536e-12,
        2.3865607832387956e-16,
        1.2807401446560395e-06,
        -4.5367271810490664e-13,
        -2.5983233655936576e-06,
        -5.469407700700257e-13,
        2.5915416483949823e-11,
        3.769970015506128e-06,
        -1.0833942496992696e-06,
        -2.7778968362390364e-13,
        -1.7385992299578363e-05,
        -4.7587862163938904e-08,
        -5.758179323988857e-12,
        -2.3658088702280045e-14,
        3.769065211341677e-05,
        -6.718632095023712e-11,
        -8.74773788029777e-24,
        -6.7523316037022626e-15,
        2.8999902421950848e-19,
        -3.951967355148127e-09,
        -2.053437606390715e-08,
        -1.1812661795948002e-12,
        1.601201267460991e-12,
        2.852710909406029e-06,
        7.592940625222232e-14,
        -3.5636854362309926e-12,
        -2.834542910194517e-06,
        -1.8389625778392764e-07,
        6.430367563842285e-14,
        -2.587338755368369e-10,
        -8.01246372759698e-13,
        -3.9049274383629954e-06,
        3.5940094534774237e-13,
        5.704803878916367e-26,
        5.290274068013584e-10,
        1.9222406248318753e-21,
        7.52516420883577e-05,
        2.762516058836917e-17,
        -1.5588943247442586e-07,
        -6.33665637314396e-09,
        -8.32977228034393e-17,
        -3.8334295625169746e-11,
        5.271102878635309e-15,
        2.08091804731163e-09,
        -1.359076655042099e-10,
        3.9102225434810327e-16,
        -5.0714955821547657e-14,
        2.696000629993472e-07,
        -8.67181721728209e-11,
        -2.5401622771477023e-23,
        -1.0362260458452721e-16,
        -6.049270951805168e-11,
        -6.836793490695497e-14,
        -1.9603631181220146e-05,
        -4.893179336871116e-14,
        6.743880462325162e-06,
        7.836114385794756e-09,
        7.864025907301057e-17,
        2.2653631971479936e-07,
        -1.5058335082822695e-08,
        -1.1575450327018707e-13,
        -7.000960843602588e-21,
        -3.4893502213883634e-12,
        -2.7141542037891054e-06,
        -1.4653554958092607e-14,
        2.587502276504136e-08,
        -1.6589848562681506e-05,
        3.3815958708958196e-09,
        -3.506225311947409e-28,
        -9.049428195451526e-08,
        -6.217210011993904e-17,
        2.1685450241583024e-08,
        1.1229601426013759e-12,
        -1.298804270453404e-09,
        1.3782915940917023e-08,
        -1.7614626577790932e-07,
        3.5843264641908034e-08,
        7.051111607640101e-10,
        3.302298478474004e-08,
        -7.874848023473189e-15,
        7.0874694107328306e-15,
        -3.951995080878365e-05,
        -7.855241807533473e-23,
        -1.4024020624259816e-20,
        -7.254082826784782e-13,
        5.141494430871773e-11,
        -8.091177894129694e-16,
        -1.1583295736463717e-10,
        8.786706100686942e-08,
        6.218646173965713e-23,
        5.868646250751405e-11,
        -9.50108225288388e-08,
        -3.2838559871189163e-09,
        -5.416090712023796e-10,
        1.863415462546429e-10,
        -6.786639320273926e-08,
        -5.1083379538155096e-12,
        3.696824481091868e-13,
        -5.547452662900662e-05,
        -5.693411471203141e-09,
        1.0704204997162446e-22,
        -4.825068888402954e-06,
        -1.309840032453191e-23,
        7.381522017528954e-14,
        -2.9340885002617446e-15,
        1.332468017406334e-13,
        -1.2025365805958735e-10,
        -5.541407170540266e-08,
        -6.363796783245132e-22,
        -1.8862612456187667e-11,
        -3.7098055653303803e-06,
        4.866846392670393e-25,
        4.507419633070527e-10,
        1.78708269952928e-10,
        1.264779688113737e-07,
        -1.2306851645962482e-05,
        9.303439426541924e-10,
        -1.1352816466883141e-07,
        -2.1777018686008013e-15,
        -2.2743503679194726e-05
      ],
      [
        1.2293231852191295e-12,
        3.3960307524612686e-10,
        4.2935039989398995e-19,
        3.8695582118083115e-10,
        1.4154148321071565e-12,
        9.678468859335029e-10,
        -3.171119046032143e-05,
        -4.745263806725422e-13,
        2.3814923979511526e-14,
        4.9294124084893154e-08,
        1.3480182278904192e-24,
        -4.3440480058699084e-18,
        -8.857971362027398e-08,
        -2.6789016412212673e-06,
        1.877358229640534e-14,
        -7.238520438487245e-05,
        -1.4565028344108871e-33,
        -3.195945206604955e-05,
        -2.4114673028245064e-06,
        1.7478869461280884e-09,
        2.0917909778721795e-08,
        -3.671558117321621e-08,
        1.4058362310059991e-08,
        -9.087849372094103e-11,
        -7.913531447585907e-09,
        -1.961075443713044e-08,
        -1.4836547222051342e-08,
        -6.181232381430016e-16,
        -4.699079235720491e-16,
        1.632276122826298e-06,
        5.152586524856537e-09,
        2.003591565060451e-05,
        1.9408786314442006e-11,
        3.758234128558817e-06,
        -3.2805287011849703e-22,
        -2.7275669899755247e-20,
        -3.8454197164318656e-09,
        -5.632373896430906e-07,
        2.533916052352694e-09,
        -1.1440563479537202e-10,
        1.703389635077348e-10,
        1.4400711726644798e-21,
        5.051974252193873e-08,
        1.3362823808030563e-12,
        -1.1870062225189003e-14,
        9.263798187981857e-08,
        -1.1477976692310944e-10,
        -1.1798009151653107e-05,
        1.1437172452692319e-09,
        -7.577651481780928e-07,
        1.0820696464621549e-11,
        8.723357930517339e-08,
        6.913297582901791e-08,
        -2.661105142953853e-05,
        3.87604763495567e-15,
        -4.482080945807715e-09,
        -2.7401114047907237e-17,
        -1.0253926060755975e-14,
        1.335861210175918e-14,
        -6.943162842477107e-11,
        -1.6916943532714573e-14,
        -4.4648835373708875e-14,
        -3.7136316412339654e-11,
        1.037535609209063e-08,
        1.9614461866825078e-17,
        -5.475826929777259e-14,
        2.903107157780022e-13,
        -1.407641802493011e-10,
        1.9743613036380914e-12,
        -6.550158396146705e-13,
        -8.24927626271655e-09,
        2.1855781984851165e-21,
        1.6653610064384112e-09,
        -6.360601634422485e-08,
        5.266418792241541e-10,
        2.1056415070759443e-14,
        -5.056072627283476e-09,
        3.343959030525332e-14,
        7.923887045221287e-12,
        -2.7529200837931115e-07,
        2.533240867085442e-07,
        -1.589287821635109e-29,
        5.002254406502969e-14,
        -1.4131974143212764e-14,
        -5.256227484767582e-18,
        5.1419440196759414e-08,
        8.2995906954357e-07,
        8.713328090660958e-07,
        7.267794929817669e-08,
        5.829156243236961e-12,
        7.181415711849093e-08,
        2.2827370598151657e-05,
        3.2105877944658205e-06,
        -6.012981268841219e-09,
        -2.6844077943076756e-13,
        -9.64773976758547e-08,
        -4.427711709038441e-09,
        -2.3332277100340032e-32,
        1.0556467234805269e-11,
        -8.96201428679654e-16,
        1.372823502551189e-12,
        -7.529640979323843e-15,
        2.0038008615600305e-08,
        6.935606882417564e-14,
        4.570985829650692e-17,
        4.491923126841518e-06,
        4.674385588850751e-16,
        1.4405038150593777e-05,
        1.6898834415454973e-16,
        2.843371548269841e-14,
        1.069479917201298e-10,
        -9.392361779586349e-07,
        9.63566238600853e-10,
        -1.719071873371336e-15,
        -6.39078979726566e-10,
        4.453742488429579e-17,
        -6.762955124592887e-11,
        -0.00011028259807612111,
        -2.1969591656282428e-15,
        -2.786285426089942e-18,
        -1.1497412171320921e-10,
        2.1243028315201323e-10,
        1.3137437381713792e-12,
        -4.33030727372786e-10,
        -5.880026161088474e-07,
        9.220585389798107e-09,
        1.338214374321198e-06,
        -5.096449087324108e-10
      ],
      [
        -1.1793978177849316e-12,
        -0.00011100868112015865,
        2.77257176071718e-10,
        -1.875683781125525e-06,
        4.3113814731158957e-16,
        1.715555878279322e-14,
        1.0320660502663213e-08,
        -1.4411021901600375e-16,
        -1.2320587970794768e-06,
        1.8195010451112812e-09,
        -1.1478523100006734e-09,
        -2.0448273316527188e-12,
        2.8487526673681582e-05,
        -1.5999114444762444e-10,
        3.0059926330333505e-16,
        -3.3505782895126653e-16,
        2.710643867452605e-11,
        3.3786522261916634e-14,
        -3.723355763710098e-10,
        -5.655635171457338e-07,
        3.1931831889589674e-13,
        3.850142682632343e-06,
        -1.0232455106601687e-22,
        -1.6077877648126694e-09,
        -8.049029475411208e-07,
        9.123339505762886e-07,
        3.663650961731932e-11,
        0.00014052441727065352,
        -4.3622171883588053e-16,
        4.864999370081151e-18,
        -6.818069809347222e-15,
        2.540981004977367e-09,
        -1.751000018905323e-29,
        3.4865064076944904e-06,
        -2.6921109951369797e-11,
        -2.0957090425816512e-12,
        7.161314154854067e-09,
        -2.0828110730677277e-09,
        1.1022672649816086e-13,
        -1.5681211727361178e-12,
        9.297860451582279e-15,
        6.694138566065232e-24,
        -4.784742597914341e-10,
        1.247263061256808e-09,
        1.210151491270047e-12,
        -3.3619043370846675e-22,
        1.0621434630365801e-05,
        -3.712666538812352e-13,
        -5.623206124839215e-08,
        1.986223036241172e-33,
        3.809903481481952e-07,
        -6.688916550953966e-12,
        -1.7120746670279116e-12,
        -8.337788999084938e-12,
        1.688185089398156e-08,
        -3.60892109148033e-06,
        -1.389407400939579e-18,
        2.8507031666221636e-15,
        -2.6627814334616328e-05,
        1.9384289680993044e-06,
        1.3369044096705662e-16,
        2.563243139479765e-14,
        -3.486593608834984e-17,
        -1.5023778053339956e-08,
        -4.91968145652556e-07,
        -1.113835255710018e-06,
        1.7810095468746888e-05,
        2.8312915226225572e-08,
        -3.926449290469119e-23,
        7.085654744445266e-15,
        -7.746139741557091e-15,
        1.0282152700482974e-08,
        5.4314869695998306e-15,
        2.4134253474075402e-18,
        1.1922644970000019e-14,
        1.9069023445331515e-06,
        1.531940661477455e-11,
        -2.534972081269897e-13,
        -5.511929961904503e-11,
        -1.005167153901074e-06,
